digraph Tree {
node [shape=box] ;
0 [label="X[24] <= 0.5\ngini = 0.5\nsamples = 12594\nvalue = [6297, 6297]"] ;
1 [label="X[1] <= 4668.5\ngini = 0.299\nsamples = 5169\nvalue = [4223, 946]"] ;
0 -> 1 [labeldistance=2.5, labelangle=45, headlabel="True"] ;
2 [label="X[3] <= 12.5\ngini = 0.238\nsamples = 4874\nvalue = [4200, 674]"] ;
1 -> 2 ;
3 [label="X[21] <= 41.5\ngini = 0.134\nsamples = 3745\nvalue = [3474, 271]"] ;
2 -> 3 ;
4 [label="X[2] <= 2218.5\ngini = 0.084\nsamples = 3010\nvalue = [2878, 132]"] ;
3 -> 4 ;
5 [label="X[0] <= 33.5\ngini = 0.079\nsamples = 2995\nvalue = [2872, 123]"] ;
4 -> 5 ;
6 [label="X[91] <= 0.5\ngini = 0.021\nsamples = 1754\nvalue = [1735, 19]"] ;
5 -> 6 ;
7 [label="X[96] <= 0.5\ngini = 0.02\nsamples = 1753\nvalue = [1735, 18]"] ;
6 -> 7 ;
8 [label="X[20] <= 23874.0\ngini = 0.019\nsamples = 1752\nvalue = [1735, 17]"] ;
7 -> 8 ;
9 [label="X[20] <= 22930.0\ngini = 0.444\nsamples = 6\nvalue = [4, 2]"] ;
8 -> 9 ;
10 [label="gini = 0.0\nsamples = 4\nvalue = [4, 0]"] ;
9 -> 10 ;
11 [label="gini = 0.0\nsamples = 2\nvalue = [0, 2]"] ;
9 -> 11 ;
12 [label="X[0] <= 27.5\ngini = 0.017\nsamples = 1746\nvalue = [1731, 15]"] ;
8 -> 12 ;
13 [label="X[42] <= 0.5\ngini = 0.007\nsamples = 1333\nvalue = [1328, 5]"] ;
12 -> 13 ;
14 [label="X[82] <= 0.5\ngini = 0.006\nsamples = 1327\nvalue = [1323, 4]"] ;
13 -> 14 ;
15 [label="X[105] <= 0.5\ngini = 0.005\nsamples = 1307\nvalue = [1304, 3]"] ;
14 -> 15 ;
16 [label="X[75] <= 0.5\ngini = 0.003\nsamples = 1283\nvalue = [1281, 2]"] ;
15 -> 16 ;
17 [label="X[79] <= 0.5\ngini = 0.002\nsamples = 1252\nvalue = [1251, 1]"] ;
16 -> 17 ;
18 [label="gini = 0.0\nsamples = 992\nvalue = [992, 0]"] ;
17 -> 18 ;
19 [label="X[20] <= 127914.5\ngini = 0.008\nsamples = 260\nvalue = [259, 1]"] ;
17 -> 19 ;
20 [label="X[20] <= 126604.5\ngini = 0.029\nsamples = 67\nvalue = [66, 1]"] ;
19 -> 20 ;
21 [label="gini = 0.0\nsamples = 66\nvalue = [66, 0]"] ;
20 -> 21 ;
22 [label="gini = 0.0\nsamples = 1\nvalue = [0, 1]"] ;
20 -> 22 ;
23 [label="gini = 0.0\nsamples = 193\nvalue = [193, 0]"] ;
19 -> 23 ;
24 [label="X[0] <= 26.5\ngini = 0.062\nsamples = 31\nvalue = [30, 1]"] ;
16 -> 24 ;
25 [label="gini = 0.0\nsamples = 28\nvalue = [28, 0]"] ;
24 -> 25 ;
26 [label="X[20] <= 279321.0\ngini = 0.444\nsamples = 3\nvalue = [2, 1]"] ;
24 -> 26 ;
27 [label="gini = 0.0\nsamples = 1\nvalue = [0, 1]"] ;
26 -> 27 ;
28 [label="gini = 0.0\nsamples = 2\nvalue = [2, 0]"] ;
26 -> 28 ;
29 [label="X[87] <= 0.5\ngini = 0.08\nsamples = 24\nvalue = [23, 1]"] ;
15 -> 29 ;
30 [label="gini = 0.0\nsamples = 23\nvalue = [23, 0]"] ;
29 -> 30 ;
31 [label="gini = 0.0\nsamples = 1\nvalue = [0, 1]"] ;
29 -> 31 ;
32 [label="X[20] <= 199791.0\ngini = 0.095\nsamples = 20\nvalue = [19, 1]"] ;
14 -> 32 ;
33 [label="X[20] <= 195063.0\ngini = 0.198\nsamples = 9\nvalue = [8, 1]"] ;
32 -> 33 ;
34 [label="gini = 0.0\nsamples = 8\nvalue = [8, 0]"] ;
33 -> 34 ;
35 [label="gini = 0.0\nsamples = 1\nvalue = [0, 1]"] ;
33 -> 35 ;
36 [label="gini = 0.0\nsamples = 11\nvalue = [11, 0]"] ;
32 -> 36 ;
37 [label="X[101] <= 0.5\ngini = 0.278\nsamples = 6\nvalue = [5, 1]"] ;
13 -> 37 ;
38 [label="gini = 0.0\nsamples = 5\nvalue = [5, 0]"] ;
37 -> 38 ;
39 [label="gini = 0.0\nsamples = 1\nvalue = [0, 1]"] ;
37 -> 39 ;
40 [label="X[74] <= 0.5\ngini = 0.047\nsamples = 413\nvalue = [403, 10]"] ;
12 -> 40 ;
41 [label="X[76] <= 0.5\ngini = 0.032\nsamples = 369\nvalue = [363, 6]"] ;
40 -> 41 ;
42 [label="X[28] <= 0.5\ngini = 0.027\nsamples = 365\nvalue = [360, 5]"] ;
41 -> 42 ;
43 [label="X[5] <= 0.5\ngini = 0.022\nsamples = 360\nvalue = [356, 4]"] ;
42 -> 43 ;
44 [label="X[100] <= 0.5\ngini = 0.017\nsamples = 353\nvalue = [350, 3]"] ;
43 -> 44 ;
45 [label="X[106] <= 0.5\ngini = 0.012\nsamples = 341\nvalue = [339, 2]"] ;
44 -> 45 ;
46 [label="X[84] <= 0.5\ngini = 0.006\nsamples = 329\nvalue = [328, 1]"] ;
45 -> 46 ;
47 [label="gini = 0.0\nsamples = 313\nvalue = [313, 0]"] ;
46 -> 47 ;
48 [label="X[27] <= 0.5\ngini = 0.117\nsamples = 16\nvalue = [15, 1]"] ;
46 -> 48 ;
49 [label="gini = 0.0\nsamples = 14\nvalue = [14, 0]"] ;
48 -> 49 ;
50 [label="X[97] <= 0.5\ngini = 0.5\nsamples = 2\nvalue = [1, 1]"] ;
48 -> 50 ;
51 [label="gini = 0.0\nsamples = 1\nvalue = [0, 1]"] ;
50 -> 51 ;
52 [label="gini = 0.0\nsamples = 1\nvalue = [1, 0]"] ;
50 -> 52 ;
53 [label="X[81] <= 0.5\ngini = 0.153\nsamples = 12\nvalue = [11, 1]"] ;
45 -> 53 ;
54 [label="gini = 0.0\nsamples = 11\nvalue = [11, 0]"] ;
53 -> 54 ;
55 [label="gini = 0.0\nsamples = 1\nvalue = [0, 1]"] ;
53 -> 55 ;
56 [label="X[0] <= 30.0\ngini = 0.153\nsamples = 12\nvalue = [11, 1]"] ;
44 -> 56 ;
57 [label="X[98] <= 0.5\ngini = 0.5\nsamples = 2\nvalue = [1, 1]"] ;
56 -> 57 ;
58 [label="gini = 0.0\nsamples = 1\nvalue = [0, 1]"] ;
57 -> 58 ;
59 [label="gini = 0.0\nsamples = 1\nvalue = [1, 0]"] ;
57 -> 59 ;
60 [label="gini = 0.0\nsamples = 10\nvalue = [10, 0]"] ;
56 -> 60 ;
61 [label="X[75] <= 0.5\ngini = 0.245\nsamples = 7\nvalue = [6, 1]"] ;
43 -> 61 ;
62 [label="gini = 0.0\nsamples = 6\nvalue = [6, 0]"] ;
61 -> 62 ;
63 [label="gini = 0.0\nsamples = 1\nvalue = [0, 1]"] ;
61 -> 63 ;
64 [label="X[11] <= 0.5\ngini = 0.32\nsamples = 5\nvalue = [4, 1]"] ;
42 -> 64 ;
65 [label="gini = 0.0\nsamples = 4\nvalue = [4, 0]"] ;
64 -> 65 ;
66 [label="gini = 0.0\nsamples = 1\nvalue = [0, 1]"] ;
64 -> 66 ;
67 [label="X[68] <= 0.5\ngini = 0.375\nsamples = 4\nvalue = [3, 1]"] ;
41 -> 67 ;
68 [label="gini = 0.0\nsamples = 1\nvalue = [0, 1]"] ;
67 -> 68 ;
69 [label="gini = 0.0\nsamples = 3\nvalue = [3, 0]"] ;
67 -> 69 ;
70 [label="X[12] <= 0.5\ngini = 0.165\nsamples = 44\nvalue = [40, 4]"] ;
40 -> 70 ;
71 [label="X[20] <= 347879.0\ngini = 0.097\nsamples = 39\nvalue = [37, 2]"] ;
70 -> 71 ;
72 [label="X[19] <= 0.5\ngini = 0.053\nsamples = 37\nvalue = [36, 1]"] ;
71 -> 72 ;
73 [label="gini = 0.0\nsamples = 25\nvalue = [25, 0]"] ;
72 -> 73 ;
74 [label="X[20] <= 179165.5\ngini = 0.153\nsamples = 12\nvalue = [11, 1]"] ;
72 -> 74 ;
75 [label="X[0] <= 29.5\ngini = 0.5\nsamples = 2\nvalue = [1, 1]"] ;
74 -> 75 ;
76 [label="gini = 0.0\nsamples = 1\nvalue = [1, 0]"] ;
75 -> 76 ;
77 [label="gini = 0.0\nsamples = 1\nvalue = [0, 1]"] ;
75 -> 77 ;
78 [label="gini = 0.0\nsamples = 10\nvalue = [10, 0]"] ;
74 -> 78 ;
79 [label="X[92] <= 0.5\ngini = 0.5\nsamples = 2\nvalue = [1, 1]"] ;
71 -> 79 ;
80 [label="gini = 0.0\nsamples = 1\nvalue = [1, 0]"] ;
79 -> 80 ;
81 [label="gini = 0.0\nsamples = 1\nvalue = [0, 1]"] ;
79 -> 81 ;
82 [label="X[92] <= 0.5\ngini = 0.48\nsamples = 5\nvalue = [3, 2]"] ;
70 -> 82 ;
83 [label="gini = 0.0\nsamples = 2\nvalue = [0, 2]"] ;
82 -> 83 ;
84 [label="gini = 0.0\nsamples = 3\nvalue = [3, 0]"] ;
82 -> 84 ;
85 [label="gini = 0.0\nsamples = 1\nvalue = [0, 1]"] ;
7 -> 85 ;
86 [label="gini = 0.0\nsamples = 1\nvalue = [0, 1]"] ;
6 -> 86 ;
87 [label="X[81] <= 0.5\ngini = 0.154\nsamples = 1241\nvalue = [1137, 104]"] ;
5 -> 87 ;
88 [label="X[75] <= 0.5\ngini = 0.133\nsamples = 1163\nvalue = [1080, 83]"] ;
87 -> 88 ;
89 [label="X[82] <= 0.5\ngini = 0.11\nsamples = 1061\nvalue = [999, 62]"] ;
88 -> 89 ;
90 [label="X[96] <= 0.5\ngini = 0.101\nsamples = 1046\nvalue = [990, 56]"] ;
89 -> 90 ;
91 [label="X[48] <= 0.5\ngini = 0.098\nsamples = 1043\nvalue = [989, 54]"] ;
90 -> 91 ;
92 [label="X[20] <= 21563.5\ngini = 0.097\nsamples = 1042\nvalue = [989, 53]"] ;
91 -> 92 ;
93 [label="gini = 0.0\nsamples = 1\nvalue = [0, 1]"] ;
92 -> 93 ;
94 [label="X[97] <= 0.5\ngini = 0.095\nsamples = 1041\nvalue = [989, 52]"] ;
92 -> 94 ;
95 [label="X[38] <= 0.5\ngini = 0.158\nsamples = 392\nvalue = [358, 34]"] ;
94 -> 95 ;
96 [label="X[26] <= 0.5\ngini = 0.155\nsamples = 391\nvalue = [358, 33]"] ;
95 -> 96 ;
97 [label="X[29] <= 0.5\ngini = 0.209\nsamples = 236\nvalue = [208, 28]"] ;
96 -> 97 ;
98 [label="X[62] <= 0.5\ngini = 0.198\nsamples = 233\nvalue = [207, 26]"] ;
97 -> 98 ;
99 [label="X[90] <= 0.5\ngini = 0.187\nsamples = 230\nvalue = [206, 24]"] ;
98 -> 99 ;
100 [label="gini = 0.0\nsamples = 44\nvalue = [44, 0]"] ;
99 -> 100 ;
101 [label="X[19] <= 0.5\ngini = 0.225\nsamples = 186\nvalue = [162, 24]"] ;
99 -> 101 ;
102 [label="X[51] <= 0.5\ngini = 0.177\nsamples = 143\nvalue = [129, 14]"] ;
101 -> 102 ;
103 [label="X[101] <= 0.5\ngini = 0.166\nsamples = 142\nvalue = [129, 13]"] ;
102 -> 103 ;
104 [label="X[20] <= 123807.5\ngini = 0.148\nsamples = 137\nvalue = [126, 11]"] ;
103 -> 104 ;
105 [label="X[0] <= 43.5\ngini = 0.278\nsamples = 36\nvalue = [30, 6]"] ;
104 -> 105 ;
106 [label="gini = 0.0\nsamples = 15\nvalue = [15, 0]"] ;
105 -> 106 ;
107 [label="X[20] <= 98801.5\ngini = 0.408\nsamples = 21\nvalue = [15, 6]"] ;
105 -> 107 ;
108 [label="X[0] <= 47.0\ngini = 0.231\nsamples = 15\nvalue = [13, 2]"] ;
107 -> 108 ;
109 [label="gini = 0.0\nsamples = 1\nvalue = [0, 1]"] ;
108 -> 109 ;
110 [label="X[20] <= 40615.0\ngini = 0.133\nsamples = 14\nvalue = [13, 1]"] ;
108 -> 110 ;
111 [label="X[20] <= 37185.5\ngini = 0.375\nsamples = 4\nvalue = [3, 1]"] ;
110 -> 111 ;
112 [label="gini = 0.0\nsamples = 2\nvalue = [2, 0]"] ;
111 -> 112 ;
113 [label="X[22] <= 0.5\ngini = 0.5\nsamples = 2\nvalue = [1, 1]"] ;
111 -> 113 ;
114 [label="gini = 0.0\nsamples = 1\nvalue = [1, 0]"] ;
113 -> 114 ;
115 [label="gini = 0.0\nsamples = 1\nvalue = [0, 1]"] ;
113 -> 115 ;
116 [label="gini = 0.0\nsamples = 10\nvalue = [10, 0]"] ;
110 -> 116 ;
117 [label="X[21] <= 24.0\ngini = 0.444\nsamples = 6\nvalue = [2, 4]"] ;
107 -> 117 ;
118 [label="gini = 0.0\nsamples = 1\nvalue = [1, 0]"] ;
117 -> 118 ;
119 [label="X[84] <= 0.5\ngini = 0.32\nsamples = 5\nvalue = [1, 4]"] ;
117 -> 119 ;
120 [label="gini = 0.0\nsamples = 4\nvalue = [0, 4]"] ;
119 -> 120 ;
121 [label="gini = 0.0\nsamples = 1\nvalue = [1, 0]"] ;
119 -> 121 ;
122 [label="X[22] <= 0.5\ngini = 0.094\nsamples = 101\nvalue = [96, 5]"] ;
104 -> 122 ;
123 [label="X[3] <= 11.5\ngini = 0.225\nsamples = 31\nvalue = [27, 4]"] ;
122 -> 123 ;
124 [label="X[15] <= 0.5\ngini = 0.18\nsamples = 30\nvalue = [27, 3]"] ;
123 -> 124 ;
125 [label="gini = 0.0\nsamples = 17\nvalue = [17, 0]"] ;
124 -> 125 ;
126 [label="X[25] <= 0.5\ngini = 0.355\nsamples = 13\nvalue = [10, 3]"] ;
124 -> 126 ;
127 [label="X[0] <= 36.0\ngini = 0.165\nsamples = 11\nvalue = [10, 1]"] ;
126 -> 127 ;
128 [label="gini = 0.0\nsamples = 1\nvalue = [0, 1]"] ;
127 -> 128 ;
129 [label="gini = 0.0\nsamples = 10\nvalue = [10, 0]"] ;
127 -> 129 ;
130 [label="gini = 0.0\nsamples = 2\nvalue = [0, 2]"] ;
126 -> 130 ;
131 [label="gini = 0.0\nsamples = 1\nvalue = [0, 1]"] ;
123 -> 131 ;
132 [label="X[78] <= 0.5\ngini = 0.028\nsamples = 70\nvalue = [69, 1]"] ;
122 -> 132 ;
133 [label="gini = 0.0\nsamples = 62\nvalue = [62, 0]"] ;
132 -> 133 ;
134 [label="X[20] <= 192691.5\ngini = 0.219\nsamples = 8\nvalue = [7, 1]"] ;
132 -> 134 ;
135 [label="X[20] <= 173147.5\ngini = 0.444\nsamples = 3\nvalue = [2, 1]"] ;
134 -> 135 ;
136 [label="gini = 0.0\nsamples = 2\nvalue = [2, 0]"] ;
135 -> 136 ;
137 [label="gini = 0.0\nsamples = 1\nvalue = [0, 1]"] ;
135 -> 137 ;
138 [label="gini = 0.0\nsamples = 5\nvalue = [5, 0]"] ;
134 -> 138 ;
139 [label="X[92] <= 0.5\ngini = 0.48\nsamples = 5\nvalue = [3, 2]"] ;
103 -> 139 ;
140 [label="gini = 0.0\nsamples = 2\nvalue = [2, 0]"] ;
139 -> 140 ;
141 [label="X[9] <= 0.5\ngini = 0.444\nsamples = 3\nvalue = [1, 2]"] ;
139 -> 141 ;
142 [label="gini = 0.0\nsamples = 2\nvalue = [0, 2]"] ;
141 -> 142 ;
143 [label="gini = 0.0\nsamples = 1\nvalue = [1, 0]"] ;
141 -> 143 ;
144 [label="gini = 0.0\nsamples = 1\nvalue = [0, 1]"] ;
102 -> 144 ;
145 [label="X[28] <= 0.5\ngini = 0.357\nsamples = 43\nvalue = [33, 10]"] ;
101 -> 145 ;
146 [label="X[20] <= 312172.5\ngini = 0.314\nsamples = 41\nvalue = [33, 8]"] ;
145 -> 146 ;
147 [label="X[74] <= 0.5\ngini = 0.26\nsamples = 39\nvalue = [33, 6]"] ;
146 -> 147 ;
148 [label="X[0] <= 39.5\ngini = 0.175\nsamples = 31\nvalue = [28, 3]"] ;
147 -> 148 ;
149 [label="X[0] <= 37.5\ngini = 0.408\nsamples = 7\nvalue = [5, 2]"] ;
148 -> 149 ;
150 [label="gini = 0.0\nsamples = 5\nvalue = [5, 0]"] ;
149 -> 150 ;
151 [label="gini = 0.0\nsamples = 2\nvalue = [0, 2]"] ;
149 -> 151 ;
152 [label="X[85] <= 0.5\ngini = 0.08\nsamples = 24\nvalue = [23, 1]"] ;
148 -> 152 ;
153 [label="gini = 0.0\nsamples = 21\nvalue = [21, 0]"] ;
152 -> 153 ;
154 [label="X[0] <= 50.0\ngini = 0.444\nsamples = 3\nvalue = [2, 1]"] ;
152 -> 154 ;
155 [label="gini = 0.0\nsamples = 2\nvalue = [2, 0]"] ;
154 -> 155 ;
156 [label="gini = 0.0\nsamples = 1\nvalue = [0, 1]"] ;
154 -> 156 ;
157 [label="X[20] <= 209355.5\ngini = 0.469\nsamples = 8\nvalue = [5, 3]"] ;
147 -> 157 ;
158 [label="X[103] <= 0.5\ngini = 0.375\nsamples = 4\nvalue = [1, 3]"] ;
157 -> 158 ;
159 [label="gini = 0.0\nsamples = 1\nvalue = [1, 0]"] ;
158 -> 159 ;
160 [label="gini = 0.0\nsamples = 3\nvalue = [0, 3]"] ;
158 -> 160 ;
161 [label="gini = 0.0\nsamples = 4\nvalue = [4, 0]"] ;
157 -> 161 ;
162 [label="gini = 0.0\nsamples = 2\nvalue = [0, 2]"] ;
146 -> 162 ;
163 [label="gini = 0.0\nsamples = 2\nvalue = [0, 2]"] ;
145 -> 163 ;
164 [label="X[92] <= 0.5\ngini = 0.444\nsamples = 3\nvalue = [1, 2]"] ;
98 -> 164 ;
165 [label="gini = 0.0\nsamples = 1\nvalue = [1, 0]"] ;
164 -> 165 ;
166 [label="gini = 0.0\nsamples = 2\nvalue = [0, 2]"] ;
164 -> 166 ;
167 [label="X[20] <= 146336.0\ngini = 0.444\nsamples = 3\nvalue = [1, 2]"] ;
97 -> 167 ;
168 [label="gini = 0.0\nsamples = 1\nvalue = [1, 0]"] ;
167 -> 168 ;
169 [label="gini = 0.0\nsamples = 2\nvalue = [0, 2]"] ;
167 -> 169 ;
170 [label="X[4] <= 0.5\ngini = 0.062\nsamples = 155\nvalue = [150, 5]"] ;
96 -> 170 ;
171 [label="X[74] <= 0.5\ngini = 0.052\nsamples = 151\nvalue = [147, 4]"] ;
170 -> 171 ;
172 [label="X[84] <= 0.5\ngini = 0.017\nsamples = 118\nvalue = [117, 1]"] ;
171 -> 172 ;
173 [label="gini = 0.0\nsamples = 111\nvalue = [111, 0]"] ;
172 -> 173 ;
174 [label="X[0] <= 36.0\ngini = 0.245\nsamples = 7\nvalue = [6, 1]"] ;
172 -> 174 ;
175 [label="gini = 0.0\nsamples = 5\nvalue = [5, 0]"] ;
174 -> 175 ;
176 [label="X[20] <= 242234.0\ngini = 0.5\nsamples = 2\nvalue = [1, 1]"] ;
174 -> 176 ;
177 [label="gini = 0.0\nsamples = 1\nvalue = [0, 1]"] ;
176 -> 177 ;
178 [label="gini = 0.0\nsamples = 1\nvalue = [1, 0]"] ;
176 -> 178 ;
179 [label="X[0] <= 47.5\ngini = 0.165\nsamples = 33\nvalue = [30, 3]"] ;
171 -> 179 ;
180 [label="X[105] <= 0.5\ngini = 0.071\nsamples = 27\nvalue = [26, 1]"] ;
179 -> 180 ;
181 [label="gini = 0.0\nsamples = 21\nvalue = [21, 0]"] ;
180 -> 181 ;
182 [label="X[0] <= 39.5\ngini = 0.278\nsamples = 6\nvalue = [5, 1]"] ;
180 -> 182 ;
183 [label="gini = 0.0\nsamples = 5\nvalue = [5, 0]"] ;
182 -> 183 ;
184 [label="gini = 0.0\nsamples = 1\nvalue = [0, 1]"] ;
182 -> 184 ;
185 [label="X[20] <= 101138.5\ngini = 0.444\nsamples = 6\nvalue = [4, 2]"] ;
179 -> 185 ;
186 [label="gini = 0.0\nsamples = 1\nvalue = [0, 1]"] ;
185 -> 186 ;
187 [label="X[20] <= 270434.0\ngini = 0.32\nsamples = 5\nvalue = [4, 1]"] ;
185 -> 187 ;
188 [label="gini = 0.0\nsamples = 4\nvalue = [4, 0]"] ;
187 -> 188 ;
189 [label="gini = 0.0\nsamples = 1\nvalue = [0, 1]"] ;
187 -> 189 ;
190 [label="X[92] <= 0.5\ngini = 0.375\nsamples = 4\nvalue = [3, 1]"] ;
170 -> 190 ;
191 [label="gini = 0.0\nsamples = 1\nvalue = [0, 1]"] ;
190 -> 191 ;
192 [label="gini = 0.0\nsamples = 3\nvalue = [3, 0]"] ;
190 -> 192 ;
193 [label="gini = 0.0\nsamples = 1\nvalue = [0, 1]"] ;
95 -> 193 ;
194 [label="X[0] <= 54.5\ngini = 0.054\nsamples = 649\nvalue = [631, 18]"] ;
94 -> 194 ;
195 [label="X[20] <= 405784.0\ngini = 0.03\nsamples = 466\nvalue = [459, 7]"] ;
194 -> 195 ;
196 [label="X[26] <= 0.5\ngini = 0.026\nsamples = 456\nvalue = [450, 6]"] ;
195 -> 196 ;
197 [label="X[100] <= 0.5\ngini = 0.011\nsamples = 349\nvalue = [347, 2]"] ;
196 -> 197 ;
198 [label="X[20] <= 50158.0\ngini = 0.006\nsamples = 330\nvalue = [329, 1]"] ;
197 -> 198 ;
199 [label="X[20] <= 49383.0\ngini = 0.087\nsamples = 22\nvalue = [21, 1]"] ;
198 -> 199 ;
200 [label="gini = 0.0\nsamples = 21\nvalue = [21, 0]"] ;
199 -> 200 ;
201 [label="gini = 0.0\nsamples = 1\nvalue = [0, 1]"] ;
199 -> 201 ;
202 [label="gini = 0.0\nsamples = 308\nvalue = [308, 0]"] ;
198 -> 202 ;
203 [label="X[90] <= 0.5\ngini = 0.1\nsamples = 19\nvalue = [18, 1]"] ;
197 -> 203 ;
204 [label="gini = 0.0\nsamples = 1\nvalue = [0, 1]"] ;
203 -> 204 ;
205 [label="gini = 0.0\nsamples = 18\nvalue = [18, 0]"] ;
203 -> 205 ;
206 [label="X[19] <= 0.5\ngini = 0.072\nsamples = 107\nvalue = [103, 4]"] ;
196 -> 206 ;
207 [label="X[94] <= 0.5\ngini = 0.023\nsamples = 85\nvalue = [84, 1]"] ;
206 -> 207 ;
208 [label="gini = 0.0\nsamples = 70\nvalue = [70, 0]"] ;
207 -> 208 ;
209 [label="X[20] <= 190816.5\ngini = 0.124\nsamples = 15\nvalue = [14, 1]"] ;
207 -> 209 ;
210 [label="gini = 0.0\nsamples = 11\nvalue = [11, 0]"] ;
209 -> 210 ;
211 [label="X[72] <= 0.5\ngini = 0.375\nsamples = 4\nvalue = [3, 1]"] ;
209 -> 211 ;
212 [label="gini = 0.0\nsamples = 3\nvalue = [3, 0]"] ;
211 -> 212 ;
213 [label="gini = 0.0\nsamples = 1\nvalue = [0, 1]"] ;
211 -> 213 ;
214 [label="X[74] <= 0.5\ngini = 0.236\nsamples = 22\nvalue = [19, 3]"] ;
206 -> 214 ;
215 [label="X[84] <= 0.5\ngini = 0.172\nsamples = 21\nvalue = [19, 2]"] ;
214 -> 215 ;
216 [label="X[0] <= 45.5\ngini = 0.1\nsamples = 19\nvalue = [18, 1]"] ;
215 -> 216 ;
217 [label="gini = 0.0\nsamples = 16\nvalue = [16, 0]"] ;
216 -> 217 ;
218 [label="X[20] <= 201573.0\ngini = 0.444\nsamples = 3\nvalue = [2, 1]"] ;
216 -> 218 ;
219 [label="gini = 0.0\nsamples = 1\nvalue = [0, 1]"] ;
218 -> 219 ;
220 [label="gini = 0.0\nsamples = 2\nvalue = [2, 0]"] ;
218 -> 220 ;
221 [label="X[95] <= 0.5\ngini = 0.5\nsamples = 2\nvalue = [1, 1]"] ;
215 -> 221 ;
222 [label="gini = 0.0\nsamples = 1\nvalue = [0, 1]"] ;
221 -> 222 ;
223 [label="gini = 0.0\nsamples = 1\nvalue = [1, 0]"] ;
221 -> 223 ;
224 [label="gini = 0.0\nsamples = 1\nvalue = [0, 1]"] ;
214 -> 224 ;
225 [label="X[20] <= 410164.0\ngini = 0.18\nsamples = 10\nvalue = [9, 1]"] ;
195 -> 225 ;
226 [label="gini = 0.0\nsamples = 1\nvalue = [0, 1]"] ;
225 -> 226 ;
227 [label="gini = 0.0\nsamples = 9\nvalue = [9, 0]"] ;
225 -> 227 ;
228 [label="X[0] <= 58.5\ngini = 0.113\nsamples = 183\nvalue = [172, 11]"] ;
194 -> 228 ;
229 [label="X[20] <= 340959.0\ngini = 0.229\nsamples = 53\nvalue = [46, 7]"] ;
228 -> 229 ;
230 [label="X[104] <= 0.5\ngini = 0.204\nsamples = 52\nvalue = [46, 6]"] ;
229 -> 230 ;
231 [label="X[21] <= 14.0\ngini = 0.177\nsamples = 51\nvalue = [46, 5]"] ;
230 -> 231 ;
232 [label="gini = 0.0\nsamples = 1\nvalue = [0, 1]"] ;
231 -> 232 ;
233 [label="X[20] <= 166362.0\ngini = 0.147\nsamples = 50\nvalue = [46, 4]"] ;
231 -> 233 ;
234 [label="X[83] <= 0.5\ngini = 0.308\nsamples = 21\nvalue = [17, 4]"] ;
233 -> 234 ;
235 [label="X[10] <= 0.5\ngini = 0.188\nsamples = 19\nvalue = [17, 2]"] ;
234 -> 235 ;
236 [label="X[0] <= 57.5\ngini = 0.105\nsamples = 18\nvalue = [17, 1]"] ;
235 -> 236 ;
237 [label="gini = 0.0\nsamples = 15\nvalue = [15, 0]"] ;
236 -> 237 ;
238 [label="X[20] <= 108379.5\ngini = 0.444\nsamples = 3\nvalue = [2, 1]"] ;
236 -> 238 ;
239 [label="gini = 0.0\nsamples = 2\nvalue = [2, 0]"] ;
238 -> 239 ;
240 [label="gini = 0.0\nsamples = 1\nvalue = [0, 1]"] ;
238 -> 240 ;
241 [label="gini = 0.0\nsamples = 1\nvalue = [0, 1]"] ;
235 -> 241 ;
242 [label="gini = 0.0\nsamples = 2\nvalue = [0, 2]"] ;
234 -> 242 ;
243 [label="gini = 0.0\nsamples = 29\nvalue = [29, 0]"] ;
233 -> 243 ;
244 [label="gini = 0.0\nsamples = 1\nvalue = [0, 1]"] ;
230 -> 244 ;
245 [label="gini = 0.0\nsamples = 1\nvalue = [0, 1]"] ;
229 -> 245 ;
246 [label="X[5] <= 0.5\ngini = 0.06\nsamples = 130\nvalue = [126, 4]"] ;
228 -> 246 ;
247 [label="X[21] <= 34.5\ngini = 0.046\nsamples = 127\nvalue = [124, 3]"] ;
246 -> 247 ;
248 [label="gini = 0.0\nsamples = 70\nvalue = [70, 0]"] ;
247 -> 248 ;
249 [label="X[0] <= 65.5\ngini = 0.1\nsamples = 57\nvalue = [54, 3]"] ;
247 -> 249 ;
250 [label="X[71] <= 0.5\ngini = 0.048\nsamples = 41\nvalue = [40, 1]"] ;
249 -> 250 ;
251 [label="gini = 0.0\nsamples = 37\nvalue = [37, 0]"] ;
250 -> 251 ;
252 [label="X[19] <= 0.5\ngini = 0.375\nsamples = 4\nvalue = [3, 1]"] ;
250 -> 252 ;
253 [label="gini = 0.0\nsamples = 3\nvalue = [3, 0]"] ;
252 -> 253 ;
254 [label="gini = 0.0\nsamples = 1\nvalue = [0, 1]"] ;
252 -> 254 ;
255 [label="X[20] <= 162826.5\ngini = 0.219\nsamples = 16\nvalue = [14, 2]"] ;
249 -> 255 ;
256 [label="gini = 0.0\nsamples = 11\nvalue = [11, 0]"] ;
255 -> 256 ;
257 [label="X[15] <= 0.5\ngini = 0.48\nsamples = 5\nvalue = [3, 2]"] ;
255 -> 257 ;
258 [label="gini = 0.0\nsamples = 3\nvalue = [3, 0]"] ;
257 -> 258 ;
259 [label="gini = 0.0\nsamples = 2\nvalue = [0, 2]"] ;
257 -> 259 ;
260 [label="X[28] <= 0.5\ngini = 0.444\nsamples = 3\nvalue = [2, 1]"] ;
246 -> 260 ;
261 [label="gini = 0.0\nsamples = 2\nvalue = [2, 0]"] ;
260 -> 261 ;
262 [label="gini = 0.0\nsamples = 1\nvalue = [0, 1]"] ;
260 -> 262 ;
263 [label="gini = 0.0\nsamples = 1\nvalue = [0, 1]"] ;
91 -> 263 ;
264 [label="X[21] <= 32.5\ngini = 0.444\nsamples = 3\nvalue = [1, 2]"] ;
90 -> 264 ;
265 [label="gini = 0.0\nsamples = 1\nvalue = [1, 0]"] ;
264 -> 265 ;
266 [label="gini = 0.0\nsamples = 2\nvalue = [0, 2]"] ;
264 -> 266 ;
267 [label="X[103] <= 0.5\ngini = 0.48\nsamples = 15\nvalue = [9, 6]"] ;
89 -> 267 ;
268 [label="X[20] <= 139064.5\ngini = 0.48\nsamples = 10\nvalue = [4, 6]"] ;
267 -> 268 ;
269 [label="X[20] <= 33692.0\ngini = 0.375\nsamples = 4\nvalue = [3, 1]"] ;
268 -> 269 ;
270 [label="gini = 0.0\nsamples = 1\nvalue = [0, 1]"] ;
269 -> 270 ;
271 [label="gini = 0.0\nsamples = 3\nvalue = [3, 0]"] ;
269 -> 271 ;
272 [label="X[92] <= 0.5\ngini = 0.278\nsamples = 6\nvalue = [1, 5]"] ;
268 -> 272 ;
273 [label="gini = 0.0\nsamples = 1\nvalue = [1, 0]"] ;
272 -> 273 ;
274 [label="gini = 0.0\nsamples = 5\nvalue = [0, 5]"] ;
272 -> 274 ;
275 [label="gini = 0.0\nsamples = 5\nvalue = [5, 0]"] ;
267 -> 275 ;
276 [label="X[20] <= 67835.5\ngini = 0.327\nsamples = 102\nvalue = [81, 21]"] ;
88 -> 276 ;
277 [label="X[0] <= 37.5\ngini = 0.5\nsamples = 10\nvalue = [5, 5]"] ;
276 -> 277 ;
278 [label="gini = 0.0\nsamples = 3\nvalue = [0, 3]"] ;
277 -> 278 ;
279 [label="X[20] <= 23431.5\ngini = 0.408\nsamples = 7\nvalue = [5, 2]"] ;
277 -> 279 ;
280 [label="gini = 0.0\nsamples = 1\nvalue = [0, 1]"] ;
279 -> 280 ;
281 [label="X[20] <= 51147.5\ngini = 0.278\nsamples = 6\nvalue = [5, 1]"] ;
279 -> 281 ;
282 [label="gini = 0.0\nsamples = 4\nvalue = [4, 0]"] ;
281 -> 282 ;
283 [label="X[20] <= 53063.0\ngini = 0.5\nsamples = 2\nvalue = [1, 1]"] ;
281 -> 283 ;
284 [label="gini = 0.0\nsamples = 1\nvalue = [0, 1]"] ;
283 -> 284 ;
285 [label="gini = 0.0\nsamples = 1\nvalue = [1, 0]"] ;
283 -> 285 ;
286 [label="X[28] <= 0.5\ngini = 0.287\nsamples = 92\nvalue = [76, 16]"] ;
276 -> 286 ;
287 [label="X[50] <= 0.5\ngini = 0.226\nsamples = 77\nvalue = [67, 10]"] ;
286 -> 287 ;
288 [label="X[20] <= 343820.0\ngini = 0.209\nsamples = 76\nvalue = [67, 9]"] ;
287 -> 288 ;
289 [label="X[97] <= 0.5\ngini = 0.191\nsamples = 75\nvalue = [67, 8]"] ;
288 -> 289 ;
290 [label="X[0] <= 48.5\ngini = 0.42\nsamples = 10\nvalue = [7, 3]"] ;
289 -> 290 ;
291 [label="gini = 0.0\nsamples = 5\nvalue = [5, 0]"] ;
290 -> 291 ;
292 [label="X[21] <= 30.0\ngini = 0.48\nsamples = 5\nvalue = [2, 3]"] ;
290 -> 292 ;
293 [label="gini = 0.0\nsamples = 2\nvalue = [2, 0]"] ;
292 -> 293 ;
294 [label="gini = 0.0\nsamples = 3\nvalue = [0, 3]"] ;
292 -> 294 ;
295 [label="X[106] <= 0.5\ngini = 0.142\nsamples = 65\nvalue = [60, 5]"] ;
289 -> 295 ;
296 [label="X[0] <= 47.5\ngini = 0.119\nsamples = 63\nvalue = [59, 4]"] ;
295 -> 296 ;
297 [label="X[0] <= 46.0\ngini = 0.208\nsamples = 34\nvalue = [30, 4]"] ;
296 -> 297 ;
298 [label="X[95] <= 0.5\ngini = 0.165\nsamples = 33\nvalue = [30, 3]"] ;
297 -> 298 ;
299 [label="X[21] <= 31.0\ngini = 0.266\nsamples = 19\nvalue = [16, 3]"] ;
298 -> 299 ;
300 [label="gini = 0.0\nsamples = 1\nvalue = [0, 1]"] ;
299 -> 300 ;
301 [label="X[11] <= 0.5\ngini = 0.198\nsamples = 18\nvalue = [16, 2]"] ;
299 -> 301 ;
302 [label="X[3] <= 9.5\ngini = 0.117\nsamples = 16\nvalue = [15, 1]"] ;
301 -> 302 ;
303 [label="gini = 0.0\nsamples = 9\nvalue = [9, 0]"] ;
302 -> 303 ;
304 [label="X[20] <= 151928.5\ngini = 0.245\nsamples = 7\nvalue = [6, 1]"] ;
302 -> 304 ;
305 [label="X[0] <= 37.5\ngini = 0.5\nsamples = 2\nvalue = [1, 1]"] ;
304 -> 305 ;
306 [label="gini = 0.0\nsamples = 1\nvalue = [0, 1]"] ;
305 -> 306 ;
307 [label="gini = 0.0\nsamples = 1\nvalue = [1, 0]"] ;
305 -> 307 ;
308 [label="gini = 0.0\nsamples = 5\nvalue = [5, 0]"] ;
304 -> 308 ;
309 [label="X[100] <= 0.5\ngini = 0.5\nsamples = 2\nvalue = [1, 1]"] ;
301 -> 309 ;
310 [label="gini = 0.0\nsamples = 1\nvalue = [0, 1]"] ;
309 -> 310 ;
311 [label="gini = 0.0\nsamples = 1\nvalue = [1, 0]"] ;
309 -> 311 ;
312 [label="gini = 0.0\nsamples = 14\nvalue = [14, 0]"] ;
298 -> 312 ;
313 [label="gini = 0.0\nsamples = 1\nvalue = [0, 1]"] ;
297 -> 313 ;
314 [label="gini = 0.0\nsamples = 29\nvalue = [29, 0]"] ;
296 -> 314 ;
315 [label="X[15] <= 0.5\ngini = 0.5\nsamples = 2\nvalue = [1, 1]"] ;
295 -> 315 ;
316 [label="gini = 0.0\nsamples = 1\nvalue = [1, 0]"] ;
315 -> 316 ;
317 [label="gini = 0.0\nsamples = 1\nvalue = [0, 1]"] ;
315 -> 317 ;
318 [label="gini = 0.0\nsamples = 1\nvalue = [0, 1]"] ;
288 -> 318 ;
319 [label="gini = 0.0\nsamples = 1\nvalue = [0, 1]"] ;
287 -> 319 ;
320 [label="X[20] <= 144486.0\ngini = 0.48\nsamples = 15\nvalue = [9, 6]"] ;
286 -> 320 ;
321 [label="gini = 0.0\nsamples = 3\nvalue = [0, 3]"] ;
320 -> 321 ;
322 [label="X[3] <= 11.5\ngini = 0.375\nsamples = 12\nvalue = [9, 3]"] ;
320 -> 322 ;
323 [label="X[20] <= 166077.5\ngini = 0.298\nsamples = 11\nvalue = [9, 2]"] ;
322 -> 323 ;
324 [label="gini = 0.0\nsamples = 5\nvalue = [5, 0]"] ;
323 -> 324 ;
325 [label="X[20] <= 197390.5\ngini = 0.444\nsamples = 6\nvalue = [4, 2]"] ;
323 -> 325 ;
326 [label="gini = 0.0\nsamples = 2\nvalue = [0, 2]"] ;
325 -> 326 ;
327 [label="gini = 0.0\nsamples = 4\nvalue = [4, 0]"] ;
325 -> 327 ;
328 [label="gini = 0.0\nsamples = 1\nvalue = [0, 1]"] ;
322 -> 328 ;
329 [label="X[98] <= 0.5\ngini = 0.393\nsamples = 78\nvalue = [57, 21]"] ;
87 -> 329 ;
330 [label="X[21] <= 39.0\ngini = 0.278\nsamples = 60\nvalue = [50, 10]"] ;
329 -> 330 ;
331 [label="gini = 0.0\nsamples = 25\nvalue = [25, 0]"] ;
330 -> 331 ;
332 [label="X[11] <= 0.5\ngini = 0.408\nsamples = 35\nvalue = [25, 10]"] ;
330 -> 332 ;
333 [label="X[22] <= 0.5\ngini = 0.35\nsamples = 31\nvalue = [24, 7]"] ;
332 -> 333 ;
334 [label="X[2] <= 782.0\ngini = 0.142\nsamples = 13\nvalue = [12, 1]"] ;
333 -> 334 ;
335 [label="gini = 0.0\nsamples = 12\nvalue = [12, 0]"] ;
334 -> 335 ;
336 [label="gini = 0.0\nsamples = 1\nvalue = [0, 1]"] ;
334 -> 336 ;
337 [label="X[20] <= 191078.0\ngini = 0.444\nsamples = 18\nvalue = [12, 6]"] ;
333 -> 337 ;
338 [label="X[0] <= 48.5\ngini = 0.375\nsamples = 16\nvalue = [12, 4]"] ;
337 -> 338 ;
339 [label="X[0] <= 41.5\ngini = 0.278\nsamples = 12\nvalue = [10, 2]"] ;
338 -> 339 ;
340 [label="X[19] <= 0.5\ngini = 0.444\nsamples = 6\nvalue = [4, 2]"] ;
339 -> 340 ;
341 [label="X[3] <= 10.0\ngini = 0.32\nsamples = 5\nvalue = [4, 1]"] ;
340 -> 341 ;
342 [label="gini = 0.0\nsamples = 2\nvalue = [2, 0]"] ;
341 -> 342 ;
343 [label="X[0] <= 34.5\ngini = 0.444\nsamples = 3\nvalue = [2, 1]"] ;
341 -> 343 ;
344 [label="gini = 0.0\nsamples = 1\nvalue = [1, 0]"] ;
343 -> 344 ;
345 [label="X[0] <= 36.0\ngini = 0.5\nsamples = 2\nvalue = [1, 1]"] ;
343 -> 345 ;
346 [label="gini = 0.0\nsamples = 1\nvalue = [0, 1]"] ;
345 -> 346 ;
347 [label="gini = 0.0\nsamples = 1\nvalue = [1, 0]"] ;
345 -> 347 ;
348 [label="gini = 0.0\nsamples = 1\nvalue = [0, 1]"] ;
340 -> 348 ;
349 [label="gini = 0.0\nsamples = 6\nvalue = [6, 0]"] ;
339 -> 349 ;
350 [label="X[106] <= 0.5\ngini = 0.5\nsamples = 4\nvalue = [2, 2]"] ;
338 -> 350 ;
351 [label="X[0] <= 52.0\ngini = 0.444\nsamples = 3\nvalue = [1, 2]"] ;
350 -> 351 ;
352 [label="gini = 0.0\nsamples = 2\nvalue = [0, 2]"] ;
351 -> 352 ;
353 [label="gini = 0.0\nsamples = 1\nvalue = [1, 0]"] ;
351 -> 353 ;
354 [label="gini = 0.0\nsamples = 1\nvalue = [1, 0]"] ;
350 -> 354 ;
355 [label="gini = 0.0\nsamples = 2\nvalue = [0, 2]"] ;
337 -> 355 ;
356 [label="X[0] <= 45.0\ngini = 0.375\nsamples = 4\nvalue = [1, 3]"] ;
332 -> 356 ;
357 [label="gini = 0.0\nsamples = 2\nvalue = [0, 2]"] ;
356 -> 357 ;
358 [label="X[95] <= 0.5\ngini = 0.5\nsamples = 2\nvalue = [1, 1]"] ;
356 -> 358 ;
359 [label="gini = 0.0\nsamples = 1\nvalue = [0, 1]"] ;
358 -> 359 ;
360 [label="gini = 0.0\nsamples = 1\nvalue = [1, 0]"] ;
358 -> 360 ;
361 [label="X[0] <= 42.5\ngini = 0.475\nsamples = 18\nvalue = [7, 11]"] ;
329 -> 361 ;
362 [label="X[20] <= 56842.0\ngini = 0.219\nsamples = 8\nvalue = [1, 7]"] ;
361 -> 362 ;
363 [label="X[22] <= 0.5\ngini = 0.5\nsamples = 2\nvalue = [1, 1]"] ;
362 -> 363 ;
364 [label="gini = 0.0\nsamples = 1\nvalue = [0, 1]"] ;
363 -> 364 ;
365 [label="gini = 0.0\nsamples = 1\nvalue = [1, 0]"] ;
363 -> 365 ;
366 [label="gini = 0.0\nsamples = 6\nvalue = [0, 6]"] ;
362 -> 366 ;
367 [label="X[0] <= 49.5\ngini = 0.48\nsamples = 10\nvalue = [6, 4]"] ;
361 -> 367 ;
368 [label="gini = 0.0\nsamples = 6\nvalue = [6, 0]"] ;
367 -> 368 ;
369 [label="gini = 0.0\nsamples = 4\nvalue = [0, 4]"] ;
367 -> 369 ;
370 [label="X[20] <= 148986.5\ngini = 0.48\nsamples = 15\nvalue = [6, 9]"] ;
4 -> 370 ;
371 [label="gini = 0.0\nsamples = 7\nvalue = [0, 7]"] ;
370 -> 371 ;
372 [label="X[2] <= 2298.5\ngini = 0.375\nsamples = 8\nvalue = [6, 2]"] ;
370 -> 372 ;
373 [label="X[20] <= 281834.5\ngini = 0.444\nsamples = 3\nvalue = [1, 2]"] ;
372 -> 373 ;
374 [label="gini = 0.0\nsamples = 2\nvalue = [0, 2]"] ;
373 -> 374 ;
375 [label="gini = 0.0\nsamples = 1\nvalue = [1, 0]"] ;
373 -> 375 ;
376 [label="gini = 0.0\nsamples = 5\nvalue = [5, 0]"] ;
372 -> 376 ;
377 [label="X[2] <= 2351.0\ngini = 0.307\nsamples = 735\nvalue = [596, 139]"] ;
3 -> 377 ;
378 [label="X[26] <= 0.5\ngini = 0.294\nsamples = 726\nvalue = [596, 130]"] ;
377 -> 378 ;
379 [label="X[98] <= 0.5\ngini = 0.388\nsamples = 353\nvalue = [260, 93]"] ;
378 -> 379 ;
380 [label="X[96] <= 0.5\ngini = 0.284\nsamples = 152\nvalue = [126, 26]"] ;
379 -> 380 ;
381 [label="X[21] <= 91.5\ngini = 0.276\nsamples = 151\nvalue = [126, 25]"] ;
380 -> 381 ;
382 [label="X[82] <= 0.5\ngini = 0.269\nsamples = 150\nvalue = [126, 24]"] ;
381 -> 382 ;
383 [label="X[41] <= 0.5\ngini = 0.261\nsamples = 149\nvalue = [126, 23]"] ;
382 -> 383 ;
384 [label="X[19] <= 0.5\ngini = 0.253\nsamples = 148\nvalue = [126, 22]"] ;
383 -> 384 ;
385 [label="X[21] <= 49.5\ngini = 0.188\nsamples = 95\nvalue = [85, 10]"] ;
384 -> 385 ;
386 [label="X[0] <= 26.0\ngini = 0.045\nsamples = 43\nvalue = [42, 1]"] ;
385 -> 386 ;
387 [label="X[21] <= 46.5\ngini = 0.375\nsamples = 4\nvalue = [3, 1]"] ;
386 -> 387 ;
388 [label="gini = 0.0\nsamples = 1\nvalue = [0, 1]"] ;
387 -> 388 ;
389 [label="gini = 0.0\nsamples = 3\nvalue = [3, 0]"] ;
387 -> 389 ;
390 [label="gini = 0.0\nsamples = 39\nvalue = [39, 0]"] ;
386 -> 390 ;
391 [label="X[5] <= 0.5\ngini = 0.286\nsamples = 52\nvalue = [43, 9]"] ;
385 -> 391 ;
392 [label="X[85] <= 0.5\ngini = 0.265\nsamples = 51\nvalue = [43, 8]"] ;
391 -> 392 ;
393 [label="X[106] <= 0.5\ngini = 0.241\nsamples = 50\nvalue = [43, 7]"] ;
392 -> 393 ;
394 [label="X[61] <= 0.5\ngini = 0.215\nsamples = 49\nvalue = [43, 6]"] ;
393 -> 394 ;
395 [label="X[0] <= 36.5\ngini = 0.187\nsamples = 48\nvalue = [43, 5]"] ;
394 -> 395 ;
396 [label="gini = 0.0\nsamples = 19\nvalue = [19, 0]"] ;
395 -> 396 ;
397 [label="X[3] <= 10.5\ngini = 0.285\nsamples = 29\nvalue = [24, 5]"] ;
395 -> 397 ;
398 [label="X[84] <= 0.5\ngini = 0.245\nsamples = 28\nvalue = [24, 4]"] ;
397 -> 398 ;
399 [label="X[104] <= 0.5\ngini = 0.198\nsamples = 27\nvalue = [24, 3]"] ;
398 -> 399 ;
400 [label="X[25] <= 0.5\ngini = 0.142\nsamples = 26\nvalue = [24, 2]"] ;
399 -> 400 ;
401 [label="X[87] <= 0.5\ngini = 0.077\nsamples = 25\nvalue = [24, 1]"] ;
400 -> 401 ;
402 [label="gini = 0.0\nsamples = 23\nvalue = [23, 0]"] ;
401 -> 402 ;
403 [label="X[92] <= 0.5\ngini = 0.5\nsamples = 2\nvalue = [1, 1]"] ;
401 -> 403 ;
404 [label="gini = 0.0\nsamples = 1\nvalue = [1, 0]"] ;
403 -> 404 ;
405 [label="gini = 0.0\nsamples = 1\nvalue = [0, 1]"] ;
403 -> 405 ;
406 [label="gini = 0.0\nsamples = 1\nvalue = [0, 1]"] ;
400 -> 406 ;
407 [label="gini = 0.0\nsamples = 1\nvalue = [0, 1]"] ;
399 -> 407 ;
408 [label="gini = 0.0\nsamples = 1\nvalue = [0, 1]"] ;
398 -> 408 ;
409 [label="gini = 0.0\nsamples = 1\nvalue = [0, 1]"] ;
397 -> 409 ;
410 [label="gini = 0.0\nsamples = 1\nvalue = [0, 1]"] ;
394 -> 410 ;
411 [label="gini = 0.0\nsamples = 1\nvalue = [0, 1]"] ;
393 -> 411 ;
412 [label="gini = 0.0\nsamples = 1\nvalue = [0, 1]"] ;
392 -> 412 ;
413 [label="gini = 0.0\nsamples = 1\nvalue = [0, 1]"] ;
391 -> 413 ;
414 [label="X[21] <= 56.0\ngini = 0.35\nsamples = 53\nvalue = [41, 12]"] ;
384 -> 414 ;
415 [label="X[0] <= 46.0\ngini = 0.438\nsamples = 37\nvalue = [25, 12]"] ;
414 -> 415 ;
416 [label="X[81] <= 0.5\ngini = 0.33\nsamples = 24\nvalue = [19, 5]"] ;
415 -> 416 ;
417 [label="X[94] <= 0.5\ngini = 0.287\nsamples = 23\nvalue = [19, 4]"] ;
416 -> 417 ;
418 [label="X[84] <= 0.5\ngini = 0.236\nsamples = 22\nvalue = [19, 3]"] ;
417 -> 418 ;
419 [label="X[83] <= 0.5\ngini = 0.18\nsamples = 20\nvalue = [18, 2]"] ;
418 -> 419 ;
420 [label="X[20] <= 245483.0\ngini = 0.111\nsamples = 17\nvalue = [16, 1]"] ;
419 -> 420 ;
421 [label="gini = 0.0\nsamples = 14\nvalue = [14, 0]"] ;
420 -> 421 ;
422 [label="X[22] <= 0.5\ngini = 0.444\nsamples = 3\nvalue = [2, 1]"] ;
420 -> 422 ;
423 [label="gini = 0.0\nsamples = 2\nvalue = [2, 0]"] ;
422 -> 423 ;
424 [label="gini = 0.0\nsamples = 1\nvalue = [0, 1]"] ;
422 -> 424 ;
425 [label="X[20] <= 172813.0\ngini = 0.444\nsamples = 3\nvalue = [2, 1]"] ;
419 -> 425 ;
426 [label="gini = 0.0\nsamples = 1\nvalue = [0, 1]"] ;
425 -> 426 ;
427 [label="gini = 0.0\nsamples = 2\nvalue = [2, 0]"] ;
425 -> 427 ;
428 [label="X[92] <= 0.5\ngini = 0.5\nsamples = 2\nvalue = [1, 1]"] ;
418 -> 428 ;
429 [label="gini = 0.0\nsamples = 1\nvalue = [1, 0]"] ;
428 -> 429 ;
430 [label="gini = 0.0\nsamples = 1\nvalue = [0, 1]"] ;
428 -> 430 ;
431 [label="gini = 0.0\nsamples = 1\nvalue = [0, 1]"] ;
417 -> 431 ;
432 [label="gini = 0.0\nsamples = 1\nvalue = [0, 1]"] ;
416 -> 432 ;
433 [label="X[74] <= 0.5\ngini = 0.497\nsamples = 13\nvalue = [6, 7]"] ;
415 -> 433 ;
434 [label="X[105] <= 0.5\ngini = 0.346\nsamples = 9\nvalue = [2, 7]"] ;
433 -> 434 ;
435 [label="gini = 0.0\nsamples = 7\nvalue = [0, 7]"] ;
434 -> 435 ;
436 [label="gini = 0.0\nsamples = 2\nvalue = [2, 0]"] ;
434 -> 436 ;
437 [label="gini = 0.0\nsamples = 4\nvalue = [4, 0]"] ;
433 -> 437 ;
438 [label="gini = 0.0\nsamples = 16\nvalue = [16, 0]"] ;
414 -> 438 ;
439 [label="gini = 0.0\nsamples = 1\nvalue = [0, 1]"] ;
383 -> 439 ;
440 [label="gini = 0.0\nsamples = 1\nvalue = [0, 1]"] ;
382 -> 440 ;
441 [label="gini = 0.0\nsamples = 1\nvalue = [0, 1]"] ;
381 -> 441 ;
442 [label="gini = 0.0\nsamples = 1\nvalue = [0, 1]"] ;
380 -> 442 ;
443 [label="X[0] <= 39.5\ngini = 0.444\nsamples = 201\nvalue = [134, 67]"] ;
379 -> 443 ;
444 [label="X[20] <= 34837.0\ngini = 0.35\nsamples = 93\nvalue = [72, 21]"] ;
443 -> 444 ;
445 [label="X[92] <= 0.5\ngini = 0.469\nsamples = 8\nvalue = [3, 5]"] ;
444 -> 445 ;
446 [label="gini = 0.0\nsamples = 2\nvalue = [2, 0]"] ;
445 -> 446 ;
447 [label="X[20] <= 24869.5\ngini = 0.278\nsamples = 6\nvalue = [1, 5]"] ;
445 -> 447 ;
448 [label="gini = 0.0\nsamples = 1\nvalue = [1, 0]"] ;
447 -> 448 ;
449 [label="gini = 0.0\nsamples = 5\nvalue = [0, 5]"] ;
447 -> 449 ;
450 [label="X[3] <= 10.5\ngini = 0.306\nsamples = 85\nvalue = [69, 16]"] ;
444 -> 450 ;
451 [label="X[48] <= 0.5\ngini = 0.227\nsamples = 69\nvalue = [60, 9]"] ;
450 -> 451 ;
452 [label="X[20] <= 116414.0\ngini = 0.208\nsamples = 68\nvalue = [60, 8]"] ;
451 -> 452 ;
453 [label="X[20] <= 76540.5\ngini = 0.388\nsamples = 19\nvalue = [14, 5]"] ;
452 -> 453 ;
454 [label="gini = 0.0\nsamples = 8\nvalue = [8, 0]"] ;
453 -> 454 ;
455 [label="X[0] <= 31.0\ngini = 0.496\nsamples = 11\nvalue = [6, 5]"] ;
453 -> 455 ;
456 [label="gini = 0.0\nsamples = 2\nvalue = [2, 0]"] ;
455 -> 456 ;
457 [label="X[21] <= 65.0\ngini = 0.494\nsamples = 9\nvalue = [4, 5]"] ;
455 -> 457 ;
458 [label="X[3] <= 6.5\ngini = 0.469\nsamples = 8\nvalue = [3, 5]"] ;
457 -> 458 ;
459 [label="gini = 0.0\nsamples = 1\nvalue = [1, 0]"] ;
458 -> 459 ;
460 [label="X[103] <= 0.5\ngini = 0.408\nsamples = 7\nvalue = [2, 5]"] ;
458 -> 460 ;
461 [label="X[83] <= 0.5\ngini = 0.444\nsamples = 3\nvalue = [2, 1]"] ;
460 -> 461 ;
462 [label="gini = 0.0\nsamples = 2\nvalue = [2, 0]"] ;
461 -> 462 ;
463 [label="gini = 0.0\nsamples = 1\nvalue = [0, 1]"] ;
461 -> 463 ;
464 [label="gini = 0.0\nsamples = 4\nvalue = [0, 4]"] ;
460 -> 464 ;
465 [label="gini = 0.0\nsamples = 1\nvalue = [1, 0]"] ;
457 -> 465 ;
466 [label="X[104] <= 0.5\ngini = 0.115\nsamples = 49\nvalue = [46, 3]"] ;
452 -> 466 ;
467 [label="X[25] <= 0.5\ngini = 0.081\nsamples = 47\nvalue = [45, 2]"] ;
466 -> 467 ;
468 [label="X[101] <= 0.5\ngini = 0.044\nsamples = 44\nvalue = [43, 1]"] ;
467 -> 468 ;
469 [label="gini = 0.0\nsamples = 41\nvalue = [41, 0]"] ;
468 -> 469 ;
470 [label="X[15] <= 0.5\ngini = 0.444\nsamples = 3\nvalue = [2, 1]"] ;
468 -> 470 ;
471 [label="gini = 0.0\nsamples = 2\nvalue = [2, 0]"] ;
470 -> 471 ;
472 [label="gini = 0.0\nsamples = 1\nvalue = [0, 1]"] ;
470 -> 472 ;
473 [label="X[105] <= 0.5\ngini = 0.444\nsamples = 3\nvalue = [2, 1]"] ;
467 -> 473 ;
474 [label="gini = 0.0\nsamples = 2\nvalue = [2, 0]"] ;
473 -> 474 ;
475 [label="gini = 0.0\nsamples = 1\nvalue = [0, 1]"] ;
473 -> 475 ;
476 [label="X[20] <= 175354.5\ngini = 0.5\nsamples = 2\nvalue = [1, 1]"] ;
466 -> 476 ;
477 [label="gini = 0.0\nsamples = 1\nvalue = [1, 0]"] ;
476 -> 477 ;
478 [label="gini = 0.0\nsamples = 1\nvalue = [0, 1]"] ;
476 -> 478 ;
479 [label="gini = 0.0\nsamples = 1\nvalue = [0, 1]"] ;
451 -> 479 ;
480 [label="X[21] <= 47.0\ngini = 0.492\nsamples = 16\nvalue = [9, 7]"] ;
450 -> 480 ;
481 [label="gini = 0.0\nsamples = 3\nvalue = [0, 3]"] ;
480 -> 481 ;
482 [label="X[0] <= 30.5\ngini = 0.426\nsamples = 13\nvalue = [9, 4]"] ;
480 -> 482 ;
483 [label="gini = 0.0\nsamples = 5\nvalue = [5, 0]"] ;
482 -> 483 ;
484 [label="X[0] <= 32.5\ngini = 0.5\nsamples = 8\nvalue = [4, 4]"] ;
482 -> 484 ;
485 [label="gini = 0.0\nsamples = 2\nvalue = [0, 2]"] ;
484 -> 485 ;
486 [label="X[100] <= 0.5\ngini = 0.444\nsamples = 6\nvalue = [4, 2]"] ;
484 -> 486 ;
487 [label="X[83] <= 0.5\ngini = 0.32\nsamples = 5\nvalue = [4, 1]"] ;
486 -> 487 ;
488 [label="gini = 0.0\nsamples = 3\nvalue = [3, 0]"] ;
487 -> 488 ;
489 [label="X[20] <= 163526.0\ngini = 0.5\nsamples = 2\nvalue = [1, 1]"] ;
487 -> 489 ;
490 [label="gini = 0.0\nsamples = 1\nvalue = [1, 0]"] ;
489 -> 490 ;
491 [label="gini = 0.0\nsamples = 1\nvalue = [0, 1]"] ;
489 -> 491 ;
492 [label="gini = 0.0\nsamples = 1\nvalue = [0, 1]"] ;
486 -> 492 ;
493 [label="X[78] <= 0.5\ngini = 0.489\nsamples = 108\nvalue = [62, 46]"] ;
443 -> 493 ;
494 [label="X[19] <= 0.5\ngini = 0.497\nsamples = 100\nvalue = [54, 46]"] ;
493 -> 494 ;
495 [label="X[27] <= 0.5\ngini = 0.473\nsamples = 65\nvalue = [40, 25]"] ;
494 -> 495 ;
496 [label="X[84] <= 0.5\ngini = 0.455\nsamples = 60\nvalue = [39, 21]"] ;
495 -> 496 ;
497 [label="X[0] <= 40.5\ngini = 0.441\nsamples = 58\nvalue = [39, 19]"] ;
496 -> 497 ;
498 [label="X[21] <= 47.5\ngini = 0.444\nsamples = 6\nvalue = [2, 4]"] ;
497 -> 498 ;
499 [label="gini = 0.0\nsamples = 2\nvalue = [2, 0]"] ;
498 -> 499 ;
500 [label="gini = 0.0\nsamples = 4\nvalue = [0, 4]"] ;
498 -> 500 ;
501 [label="X[83] <= 0.5\ngini = 0.411\nsamples = 52\nvalue = [37, 15]"] ;
497 -> 501 ;
502 [label="X[20] <= 337432.5\ngini = 0.444\nsamples = 45\nvalue = [30, 15]"] ;
501 -> 502 ;
503 [label="X[0] <= 51.5\ngini = 0.422\nsamples = 43\nvalue = [30, 13]"] ;
502 -> 503 ;
504 [label="X[2] <= 2119.0\ngini = 0.287\nsamples = 23\nvalue = [19, 4]"] ;
503 -> 504 ;
505 [label="X[20] <= 21613.5\ngini = 0.236\nsamples = 22\nvalue = [19, 3]"] ;
504 -> 505 ;
506 [label="gini = 0.0\nsamples = 1\nvalue = [0, 1]"] ;
505 -> 506 ;
507 [label="X[6] <= 0.5\ngini = 0.172\nsamples = 21\nvalue = [19, 2]"] ;
505 -> 507 ;
508 [label="X[12] <= 0.5\ngini = 0.095\nsamples = 20\nvalue = [19, 1]"] ;
507 -> 508 ;
509 [label="gini = 0.0\nsamples = 16\nvalue = [16, 0]"] ;
508 -> 509 ;
510 [label="X[103] <= 0.5\ngini = 0.375\nsamples = 4\nvalue = [3, 1]"] ;
508 -> 510 ;
511 [label="gini = 0.0\nsamples = 3\nvalue = [3, 0]"] ;
510 -> 511 ;
512 [label="gini = 0.0\nsamples = 1\nvalue = [0, 1]"] ;
510 -> 512 ;
513 [label="gini = 0.0\nsamples = 1\nvalue = [0, 1]"] ;
507 -> 513 ;
514 [label="gini = 0.0\nsamples = 1\nvalue = [0, 1]"] ;
504 -> 514 ;
515 [label="X[20] <= 193764.5\ngini = 0.495\nsamples = 20\nvalue = [11, 9]"] ;
503 -> 515 ;
516 [label="X[20] <= 132299.5\ngini = 0.473\nsamples = 13\nvalue = [5, 8]"] ;
515 -> 516 ;
517 [label="X[3] <= 7.5\ngini = 0.444\nsamples = 6\nvalue = [4, 2]"] ;
516 -> 517 ;
518 [label="gini = 0.0\nsamples = 3\nvalue = [3, 0]"] ;
517 -> 518 ;
519 [label="X[21] <= 43.5\ngini = 0.444\nsamples = 3\nvalue = [1, 2]"] ;
517 -> 519 ;
520 [label="gini = 0.0\nsamples = 1\nvalue = [1, 0]"] ;
519 -> 520 ;
521 [label="gini = 0.0\nsamples = 2\nvalue = [0, 2]"] ;
519 -> 521 ;
522 [label="X[0] <= 65.0\ngini = 0.245\nsamples = 7\nvalue = [1, 6]"] ;
516 -> 522 ;
523 [label="gini = 0.0\nsamples = 6\nvalue = [0, 6]"] ;
522 -> 523 ;
524 [label="gini = 0.0\nsamples = 1\nvalue = [1, 0]"] ;
522 -> 524 ;
525 [label="X[0] <= 53.0\ngini = 0.245\nsamples = 7\nvalue = [6, 1]"] ;
515 -> 525 ;
526 [label="gini = 0.0\nsamples = 1\nvalue = [0, 1]"] ;
525 -> 526 ;
527 [label="gini = 0.0\nsamples = 6\nvalue = [6, 0]"] ;
525 -> 527 ;
528 [label="gini = 0.0\nsamples = 2\nvalue = [0, 2]"] ;
502 -> 528 ;
529 [label="gini = 0.0\nsamples = 7\nvalue = [7, 0]"] ;
501 -> 529 ;
530 [label="gini = 0.0\nsamples = 2\nvalue = [0, 2]"] ;
496 -> 530 ;
531 [label="X[20] <= 75255.0\ngini = 0.32\nsamples = 5\nvalue = [1, 4]"] ;
495 -> 531 ;
532 [label="gini = 0.0\nsamples = 1\nvalue = [1, 0]"] ;
531 -> 532 ;
533 [label="gini = 0.0\nsamples = 4\nvalue = [0, 4]"] ;
531 -> 533 ;
534 [label="X[103] <= 0.5\ngini = 0.48\nsamples = 35\nvalue = [14, 21]"] ;
494 -> 534 ;
535 [label="X[74] <= 0.5\ngini = 0.26\nsamples = 13\nvalue = [2, 11]"] ;
534 -> 535 ;
536 [label="X[99] <= 0.5\ngini = 0.153\nsamples = 12\nvalue = [1, 11]"] ;
535 -> 536 ;
537 [label="gini = 0.0\nsamples = 11\nvalue = [0, 11]"] ;
536 -> 537 ;
538 [label="gini = 0.0\nsamples = 1\nvalue = [1, 0]"] ;
536 -> 538 ;
539 [label="gini = 0.0\nsamples = 1\nvalue = [1, 0]"] ;
535 -> 539 ;
540 [label="X[0] <= 46.5\ngini = 0.496\nsamples = 22\nvalue = [12, 10]"] ;
534 -> 540 ;
541 [label="X[27] <= 0.5\ngini = 0.355\nsamples = 13\nvalue = [10, 3]"] ;
540 -> 541 ;
542 [label="X[20] <= 47244.5\ngini = 0.18\nsamples = 10\nvalue = [9, 1]"] ;
541 -> 542 ;
543 [label="gini = 0.0\nsamples = 1\nvalue = [0, 1]"] ;
542 -> 543 ;
544 [label="gini = 0.0\nsamples = 9\nvalue = [9, 0]"] ;
542 -> 544 ;
545 [label="X[2] <= 990.0\ngini = 0.444\nsamples = 3\nvalue = [1, 2]"] ;
541 -> 545 ;
546 [label="gini = 0.0\nsamples = 2\nvalue = [0, 2]"] ;
545 -> 546 ;
547 [label="gini = 0.0\nsamples = 1\nvalue = [1, 0]"] ;
545 -> 547 ;
548 [label="X[21] <= 55.0\ngini = 0.346\nsamples = 9\nvalue = [2, 7]"] ;
540 -> 548 ;
549 [label="gini = 0.0\nsamples = 7\nvalue = [0, 7]"] ;
548 -> 549 ;
550 [label="gini = 0.0\nsamples = 2\nvalue = [2, 0]"] ;
548 -> 550 ;
551 [label="gini = 0.0\nsamples = 8\nvalue = [8, 0]"] ;
493 -> 551 ;
552 [label="X[92] <= 0.5\ngini = 0.179\nsamples = 373\nvalue = [336, 37]"] ;
378 -> 552 ;
553 [label="X[2] <= 1963.5\ngini = 0.049\nsamples = 158\nvalue = [154, 4]"] ;
552 -> 553 ;
554 [label="X[87] <= 0.5\ngini = 0.037\nsamples = 157\nvalue = [154, 3]"] ;
553 -> 554 ;
555 [label="X[72] <= 0.5\ngini = 0.025\nsamples = 155\nvalue = [153, 2]"] ;
554 -> 555 ;
556 [label="X[20] <= 282784.5\ngini = 0.013\nsamples = 149\nvalue = [148, 1]"] ;
555 -> 556 ;
557 [label="gini = 0.0\nsamples = 126\nvalue = [126, 0]"] ;
556 -> 557 ;
558 [label="X[20] <= 284811.5\ngini = 0.083\nsamples = 23\nvalue = [22, 1]"] ;
556 -> 558 ;
559 [label="gini = 0.0\nsamples = 1\nvalue = [0, 1]"] ;
558 -> 559 ;
560 [label="gini = 0.0\nsamples = 22\nvalue = [22, 0]"] ;
558 -> 560 ;
561 [label="X[0] <= 41.5\ngini = 0.278\nsamples = 6\nvalue = [5, 1]"] ;
555 -> 561 ;
562 [label="gini = 0.0\nsamples = 5\nvalue = [5, 0]"] ;
561 -> 562 ;
563 [label="gini = 0.0\nsamples = 1\nvalue = [0, 1]"] ;
561 -> 563 ;
564 [label="X[19] <= 0.5\ngini = 0.5\nsamples = 2\nvalue = [1, 1]"] ;
554 -> 564 ;
565 [label="gini = 0.0\nsamples = 1\nvalue = [0, 1]"] ;
564 -> 565 ;
566 [label="gini = 0.0\nsamples = 1\nvalue = [1, 0]"] ;
564 -> 566 ;
567 [label="gini = 0.0\nsamples = 1\nvalue = [0, 1]"] ;
553 -> 567 ;
568 [label="X[21] <= 49.5\ngini = 0.26\nsamples = 215\nvalue = [182, 33]"] ;
552 -> 568 ;
569 [label="X[100] <= 0.5\ngini = 0.112\nsamples = 84\nvalue = [79, 5]"] ;
568 -> 569 ;
570 [label="X[20] <= 37003.5\ngini = 0.093\nsamples = 82\nvalue = [78, 4]"] ;
569 -> 570 ;
571 [label="X[12] <= 0.5\ngini = 0.5\nsamples = 2\nvalue = [1, 1]"] ;
570 -> 571 ;
572 [label="gini = 0.0\nsamples = 1\nvalue = [1, 0]"] ;
571 -> 572 ;
573 [label="gini = 0.0\nsamples = 1\nvalue = [0, 1]"] ;
571 -> 573 ;
574 [label="X[20] <= 339678.0\ngini = 0.072\nsamples = 80\nvalue = [77, 3]"] ;
570 -> 574 ;
575 [label="X[83] <= 0.5\ngini = 0.028\nsamples = 70\nvalue = [69, 1]"] ;
574 -> 575 ;
576 [label="gini = 0.0\nsamples = 54\nvalue = [54, 0]"] ;
575 -> 576 ;
577 [label="X[20] <= 203242.0\ngini = 0.117\nsamples = 16\nvalue = [15, 1]"] ;
575 -> 577 ;
578 [label="X[19] <= 0.5\ngini = 0.375\nsamples = 4\nvalue = [3, 1]"] ;
577 -> 578 ;
579 [label="gini = 0.0\nsamples = 3\nvalue = [3, 0]"] ;
578 -> 579 ;
580 [label="gini = 0.0\nsamples = 1\nvalue = [0, 1]"] ;
578 -> 580 ;
581 [label="gini = 0.0\nsamples = 12\nvalue = [12, 0]"] ;
577 -> 581 ;
582 [label="X[20] <= 347410.5\ngini = 0.32\nsamples = 10\nvalue = [8, 2]"] ;
574 -> 582 ;
583 [label="gini = 0.0\nsamples = 1\nvalue = [0, 1]"] ;
582 -> 583 ;
584 [label="X[0] <= 47.0\ngini = 0.198\nsamples = 9\nvalue = [8, 1]"] ;
582 -> 584 ;
585 [label="gini = 0.0\nsamples = 8\nvalue = [8, 0]"] ;
584 -> 585 ;
586 [label="gini = 0.0\nsamples = 1\nvalue = [0, 1]"] ;
584 -> 586 ;
587 [label="X[3] <= 10.5\ngini = 0.5\nsamples = 2\nvalue = [1, 1]"] ;
569 -> 587 ;
588 [label="gini = 0.0\nsamples = 1\nvalue = [0, 1]"] ;
587 -> 588 ;
589 [label="gini = 0.0\nsamples = 1\nvalue = [1, 0]"] ;
587 -> 589 ;
590 [label="X[20] <= 356013.5\ngini = 0.336\nsamples = 131\nvalue = [103, 28]"] ;
568 -> 590 ;
591 [label="X[9] <= 0.5\ngini = 0.301\nsamples = 119\nvalue = [97, 22]"] ;
590 -> 591 ;
592 [label="X[29] <= 0.5\ngini = 0.293\nsamples = 118\nvalue = [97, 21]"] ;
591 -> 592 ;
593 [label="X[75] <= 0.5\ngini = 0.283\nsamples = 117\nvalue = [97, 20]"] ;
592 -> 593 ;
594 [label="X[2] <= 782.0\ngini = 0.241\nsamples = 100\nvalue = [86, 14]"] ;
593 -> 594 ;
595 [label="X[20] <= 34236.0\ngini = 0.217\nsamples = 97\nvalue = [85, 12]"] ;
594 -> 595 ;
596 [label="X[3] <= 9.5\ngini = 0.5\nsamples = 4\nvalue = [2, 2]"] ;
595 -> 596 ;
597 [label="gini = 0.0\nsamples = 2\nvalue = [0, 2]"] ;
596 -> 597 ;
598 [label="gini = 0.0\nsamples = 2\nvalue = [2, 0]"] ;
596 -> 598 ;
599 [label="X[81] <= 0.5\ngini = 0.192\nsamples = 93\nvalue = [83, 10]"] ;
595 -> 599 ;
600 [label="X[0] <= 26.5\ngini = 0.165\nsamples = 88\nvalue = [80, 8]"] ;
599 -> 600 ;
601 [label="gini = 0.0\nsamples = 27\nvalue = [27, 0]"] ;
600 -> 601 ;
602 [label="X[0] <= 27.5\ngini = 0.228\nsamples = 61\nvalue = [53, 8]"] ;
600 -> 602 ;
603 [label="X[21] <= 51.0\ngini = 0.444\nsamples = 3\nvalue = [1, 2]"] ;
602 -> 603 ;
604 [label="gini = 0.0\nsamples = 2\nvalue = [0, 2]"] ;
603 -> 604 ;
605 [label="gini = 0.0\nsamples = 1\nvalue = [1, 0]"] ;
603 -> 605 ;
606 [label="X[101] <= 0.5\ngini = 0.185\nsamples = 58\nvalue = [52, 6]"] ;
602 -> 606 ;
607 [label="X[20] <= 211519.5\ngini = 0.16\nsamples = 57\nvalue = [52, 5]"] ;
606 -> 607 ;
608 [label="X[97] <= 0.5\ngini = 0.061\nsamples = 32\nvalue = [31, 1]"] ;
607 -> 608 ;
609 [label="gini = 0.0\nsamples = 28\nvalue = [28, 0]"] ;
608 -> 609 ;
610 [label="X[0] <= 46.5\ngini = 0.375\nsamples = 4\nvalue = [3, 1]"] ;
608 -> 610 ;
611 [label="gini = 0.0\nsamples = 3\nvalue = [3, 0]"] ;
610 -> 611 ;
612 [label="gini = 0.0\nsamples = 1\nvalue = [0, 1]"] ;
610 -> 612 ;
613 [label="X[20] <= 231415.5\ngini = 0.269\nsamples = 25\nvalue = [21, 4]"] ;
607 -> 613 ;
614 [label="X[0] <= 28.5\ngini = 0.375\nsamples = 4\nvalue = [1, 3]"] ;
613 -> 614 ;
615 [label="gini = 0.0\nsamples = 1\nvalue = [1, 0]"] ;
614 -> 615 ;
616 [label="gini = 0.0\nsamples = 3\nvalue = [0, 3]"] ;
614 -> 616 ;
617 [label="X[20] <= 263277.5\ngini = 0.091\nsamples = 21\nvalue = [20, 1]"] ;
613 -> 617 ;
618 [label="X[0] <= 39.5\ngini = 0.375\nsamples = 4\nvalue = [3, 1]"] ;
617 -> 618 ;
619 [label="gini = 0.0\nsamples = 3\nvalue = [3, 0]"] ;
618 -> 619 ;
620 [label="gini = 0.0\nsamples = 1\nvalue = [0, 1]"] ;
618 -> 620 ;
621 [label="gini = 0.0\nsamples = 17\nvalue = [17, 0]"] ;
617 -> 621 ;
622 [label="gini = 0.0\nsamples = 1\nvalue = [0, 1]"] ;
606 -> 622 ;
623 [label="X[20] <= 213667.5\ngini = 0.48\nsamples = 5\nvalue = [3, 2]"] ;
599 -> 623 ;
624 [label="gini = 0.0\nsamples = 2\nvalue = [0, 2]"] ;
623 -> 624 ;
625 [label="gini = 0.0\nsamples = 3\nvalue = [3, 0]"] ;
623 -> 625 ;
626 [label="X[2] <= 1577.0\ngini = 0.444\nsamples = 3\nvalue = [1, 2]"] ;
594 -> 626 ;
627 [label="gini = 0.0\nsamples = 2\nvalue = [0, 2]"] ;
626 -> 627 ;
628 [label="gini = 0.0\nsamples = 1\nvalue = [1, 0]"] ;
626 -> 628 ;
629 [label="X[3] <= 10.5\ngini = 0.457\nsamples = 17\nvalue = [11, 6]"] ;
593 -> 629 ;
630 [label="X[0] <= 27.5\ngini = 0.391\nsamples = 15\nvalue = [11, 4]"] ;
629 -> 630 ;
631 [label="gini = 0.0\nsamples = 2\nvalue = [0, 2]"] ;
630 -> 631 ;
632 [label="X[21] <= 62.5\ngini = 0.26\nsamples = 13\nvalue = [11, 2]"] ;
630 -> 632 ;
633 [label="X[0] <= 38.5\ngini = 0.165\nsamples = 11\nvalue = [10, 1]"] ;
632 -> 633 ;
634 [label="gini = 0.0\nsamples = 6\nvalue = [6, 0]"] ;
633 -> 634 ;
635 [label="X[0] <= 40.5\ngini = 0.32\nsamples = 5\nvalue = [4, 1]"] ;
633 -> 635 ;
636 [label="X[20] <= 223504.5\ngini = 0.5\nsamples = 2\nvalue = [1, 1]"] ;
635 -> 636 ;
637 [label="gini = 0.0\nsamples = 1\nvalue = [0, 1]"] ;
636 -> 637 ;
638 [label="gini = 0.0\nsamples = 1\nvalue = [1, 0]"] ;
636 -> 638 ;
639 [label="gini = 0.0\nsamples = 3\nvalue = [3, 0]"] ;
635 -> 639 ;
640 [label="X[2] <= 1129.0\ngini = 0.5\nsamples = 2\nvalue = [1, 1]"] ;
632 -> 640 ;
641 [label="gini = 0.0\nsamples = 1\nvalue = [0, 1]"] ;
640 -> 641 ;
642 [label="gini = 0.0\nsamples = 1\nvalue = [1, 0]"] ;
640 -> 642 ;
643 [label="gini = 0.0\nsamples = 2\nvalue = [0, 2]"] ;
629 -> 643 ;
644 [label="gini = 0.0\nsamples = 1\nvalue = [0, 1]"] ;
592 -> 644 ;
645 [label="gini = 0.0\nsamples = 1\nvalue = [0, 1]"] ;
591 -> 645 ;
646 [label="X[0] <= 28.0\ngini = 0.5\nsamples = 12\nvalue = [6, 6]"] ;
590 -> 646 ;
647 [label="gini = 0.0\nsamples = 5\nvalue = [5, 0]"] ;
646 -> 647 ;
648 [label="X[20] <= 424512.0\ngini = 0.245\nsamples = 7\nvalue = [1, 6]"] ;
646 -> 648 ;
649 [label="gini = 0.0\nsamples = 5\nvalue = [0, 5]"] ;
648 -> 649 ;
650 [label="X[75] <= 0.5\ngini = 0.5\nsamples = 2\nvalue = [1, 1]"] ;
648 -> 650 ;
651 [label="gini = 0.0\nsamples = 1\nvalue = [1, 0]"] ;
650 -> 651 ;
652 [label="gini = 0.0\nsamples = 1\nvalue = [0, 1]"] ;
650 -> 652 ;
653 [label="gini = 0.0\nsamples = 9\nvalue = [0, 9]"] ;
377 -> 653 ;
654 [label="X[0] <= 29.5\ngini = 0.459\nsamples = 1129\nvalue = [726, 403]"] ;
2 -> 654 ;
655 [label="X[21] <= 49.0\ngini = 0.199\nsamples = 322\nvalue = [286, 36]"] ;
654 -> 655 ;
656 [label="X[2] <= 1534.0\ngini = 0.098\nsamples = 251\nvalue = [238, 13]"] ;
655 -> 656 ;
657 [label="X[74] <= 0.5\ngini = 0.078\nsamples = 246\nvalue = [236, 10]"] ;
656 -> 657 ;
658 [label="X[27] <= 0.5\ngini = 0.064\nsamples = 242\nvalue = [234, 8]"] ;
657 -> 658 ;
659 [label="X[75] <= 0.5\ngini = 0.057\nsamples = 240\nvalue = [233, 7]"] ;
658 -> 659 ;
660 [label="X[16] <= 0.5\ngini = 0.038\nsamples = 205\nvalue = [201, 4]"] ;
659 -> 660 ;
661 [label="X[72] <= 0.5\ngini = 0.021\nsamples = 190\nvalue = [188, 2]"] ;
660 -> 661 ;
662 [label="gini = 0.0\nsamples = 147\nvalue = [147, 0]"] ;
661 -> 662 ;
663 [label="X[20] <= 176654.5\ngini = 0.089\nsamples = 43\nvalue = [41, 2]"] ;
661 -> 663 ;
664 [label="gini = 0.0\nsamples = 17\nvalue = [17, 0]"] ;
663 -> 664 ;
665 [label="X[20] <= 178180.0\ngini = 0.142\nsamples = 26\nvalue = [24, 2]"] ;
663 -> 665 ;
666 [label="gini = 0.0\nsamples = 1\nvalue = [0, 1]"] ;
665 -> 666 ;
667 [label="X[20] <= 200701.0\ngini = 0.077\nsamples = 25\nvalue = [24, 1]"] ;
665 -> 667 ;
668 [label="X[20] <= 198928.0\ngini = 0.219\nsamples = 8\nvalue = [7, 1]"] ;
667 -> 668 ;
669 [label="gini = 0.0\nsamples = 7\nvalue = [7, 0]"] ;
668 -> 669 ;
670 [label="gini = 0.0\nsamples = 1\nvalue = [0, 1]"] ;
668 -> 670 ;
671 [label="gini = 0.0\nsamples = 17\nvalue = [17, 0]"] ;
667 -> 671 ;
672 [label="X[20] <= 335449.5\ngini = 0.231\nsamples = 15\nvalue = [13, 2]"] ;
660 -> 672 ;
673 [label="X[94] <= 0.5\ngini = 0.133\nsamples = 14\nvalue = [13, 1]"] ;
672 -> 673 ;
674 [label="gini = 0.0\nsamples = 11\nvalue = [11, 0]"] ;
673 -> 674 ;
675 [label="X[97] <= 0.5\ngini = 0.444\nsamples = 3\nvalue = [2, 1]"] ;
673 -> 675 ;
676 [label="gini = 0.0\nsamples = 2\nvalue = [2, 0]"] ;
675 -> 676 ;
677 [label="gini = 0.0\nsamples = 1\nvalue = [0, 1]"] ;
675 -> 677 ;
678 [label="gini = 0.0\nsamples = 1\nvalue = [0, 1]"] ;
672 -> 678 ;
679 [label="X[20] <= 50636.5\ngini = 0.157\nsamples = 35\nvalue = [32, 3]"] ;
659 -> 679 ;
680 [label="X[92] <= 0.5\ngini = 0.5\nsamples = 2\nvalue = [1, 1]"] ;
679 -> 680 ;
681 [label="gini = 0.0\nsamples = 1\nvalue = [1, 0]"] ;
680 -> 681 ;
682 [label="gini = 0.0\nsamples = 1\nvalue = [0, 1]"] ;
680 -> 682 ;
683 [label="X[95] <= 0.5\ngini = 0.114\nsamples = 33\nvalue = [31, 2]"] ;
679 -> 683 ;
684 [label="X[21] <= 42.5\ngini = 0.064\nsamples = 30\nvalue = [29, 1]"] ;
683 -> 684 ;
685 [label="gini = 0.0\nsamples = 24\nvalue = [24, 0]"] ;
684 -> 685 ;
686 [label="X[20] <= 166500.0\ngini = 0.278\nsamples = 6\nvalue = [5, 1]"] ;
684 -> 686 ;
687 [label="gini = 0.0\nsamples = 5\nvalue = [5, 0]"] ;
686 -> 687 ;
688 [label="gini = 0.0\nsamples = 1\nvalue = [0, 1]"] ;
686 -> 688 ;
689 [label="X[20] <= 162226.5\ngini = 0.444\nsamples = 3\nvalue = [2, 1]"] ;
683 -> 689 ;
690 [label="gini = 0.0\nsamples = 1\nvalue = [0, 1]"] ;
689 -> 690 ;
691 [label="gini = 0.0\nsamples = 2\nvalue = [2, 0]"] ;
689 -> 691 ;
692 [label="X[87] <= 0.5\ngini = 0.5\nsamples = 2\nvalue = [1, 1]"] ;
658 -> 692 ;
693 [label="gini = 0.0\nsamples = 1\nvalue = [1, 0]"] ;
692 -> 693 ;
694 [label="gini = 0.0\nsamples = 1\nvalue = [0, 1]"] ;
692 -> 694 ;
695 [label="X[0] <= 25.5\ngini = 0.5\nsamples = 4\nvalue = [2, 2]"] ;
657 -> 695 ;
696 [label="gini = 0.0\nsamples = 2\nvalue = [2, 0]"] ;
695 -> 696 ;
697 [label="gini = 0.0\nsamples = 2\nvalue = [0, 2]"] ;
695 -> 697 ;
698 [label="X[94] <= 0.5\ngini = 0.48\nsamples = 5\nvalue = [2, 3]"] ;
656 -> 698 ;
699 [label="X[0] <= 28.5\ngini = 0.444\nsamples = 3\nvalue = [2, 1]"] ;
698 -> 699 ;
700 [label="gini = 0.0\nsamples = 2\nvalue = [2, 0]"] ;
699 -> 700 ;
701 [label="gini = 0.0\nsamples = 1\nvalue = [0, 1]"] ;
699 -> 701 ;
702 [label="gini = 0.0\nsamples = 2\nvalue = [0, 2]"] ;
698 -> 702 ;
703 [label="X[0] <= 27.5\ngini = 0.438\nsamples = 71\nvalue = [48, 23]"] ;
655 -> 703 ;
704 [label="X[20] <= 46684.5\ngini = 0.225\nsamples = 31\nvalue = [27, 4]"] ;
703 -> 704 ;
705 [label="gini = 0.0\nsamples = 1\nvalue = [0, 1]"] ;
704 -> 705 ;
706 [label="X[21] <= 53.5\ngini = 0.18\nsamples = 30\nvalue = [27, 3]"] ;
704 -> 706 ;
707 [label="gini = 0.0\nsamples = 17\nvalue = [17, 0]"] ;
706 -> 707 ;
708 [label="X[103] <= 0.5\ngini = 0.355\nsamples = 13\nvalue = [10, 3]"] ;
706 -> 708 ;
709 [label="gini = 0.0\nsamples = 8\nvalue = [8, 0]"] ;
708 -> 709 ;
710 [label="X[98] <= 0.5\ngini = 0.48\nsamples = 5\nvalue = [2, 3]"] ;
708 -> 710 ;
711 [label="gini = 0.0\nsamples = 2\nvalue = [2, 0]"] ;
710 -> 711 ;
712 [label="gini = 0.0\nsamples = 3\nvalue = [0, 3]"] ;
710 -> 712 ;
713 [label="X[18] <= 0.5\ngini = 0.499\nsamples = 40\nvalue = [21, 19]"] ;
703 -> 713 ;
714 [label="X[20] <= 192146.5\ngini = 0.491\nsamples = 30\nvalue = [13, 17]"] ;
713 -> 714 ;
715 [label="X[20] <= 94806.5\ngini = 0.444\nsamples = 15\nvalue = [10, 5]"] ;
714 -> 715 ;
716 [label="gini = 0.0\nsamples = 2\nvalue = [0, 2]"] ;
715 -> 716 ;
717 [label="X[21] <= 52.5\ngini = 0.355\nsamples = 13\nvalue = [10, 3]"] ;
715 -> 717 ;
718 [label="X[20] <= 182444.0\ngini = 0.469\nsamples = 8\nvalue = [5, 3]"] ;
717 -> 718 ;
719 [label="X[20] <= 133832.5\ngini = 0.375\nsamples = 4\nvalue = [1, 3]"] ;
718 -> 719 ;
720 [label="gini = 0.0\nsamples = 1\nvalue = [1, 0]"] ;
719 -> 720 ;
721 [label="gini = 0.0\nsamples = 3\nvalue = [0, 3]"] ;
719 -> 721 ;
722 [label="gini = 0.0\nsamples = 4\nvalue = [4, 0]"] ;
718 -> 722 ;
723 [label="gini = 0.0\nsamples = 5\nvalue = [5, 0]"] ;
717 -> 723 ;
724 [label="X[92] <= 0.5\ngini = 0.32\nsamples = 15\nvalue = [3, 12]"] ;
714 -> 724 ;
725 [label="gini = 0.0\nsamples = 2\nvalue = [2, 0]"] ;
724 -> 725 ;
726 [label="X[20] <= 317363.5\ngini = 0.142\nsamples = 13\nvalue = [1, 12]"] ;
724 -> 726 ;
727 [label="gini = 0.0\nsamples = 9\nvalue = [0, 9]"] ;
726 -> 727 ;
728 [label="X[20] <= 341001.5\ngini = 0.375\nsamples = 4\nvalue = [1, 3]"] ;
726 -> 728 ;
729 [label="gini = 0.0\nsamples = 1\nvalue = [1, 0]"] ;
728 -> 729 ;
730 [label="gini = 0.0\nsamples = 3\nvalue = [0, 3]"] ;
728 -> 730 ;
731 [label="X[20] <= 154723.0\ngini = 0.32\nsamples = 10\nvalue = [8, 2]"] ;
713 -> 731 ;
732 [label="X[100] <= 0.5\ngini = 0.444\nsamples = 3\nvalue = [1, 2]"] ;
731 -> 732 ;
733 [label="gini = 0.0\nsamples = 2\nvalue = [0, 2]"] ;
732 -> 733 ;
734 [label="gini = 0.0\nsamples = 1\nvalue = [1, 0]"] ;
732 -> 734 ;
735 [label="gini = 0.0\nsamples = 7\nvalue = [7, 0]"] ;
731 -> 735 ;
736 [label="X[21] <= 44.5\ngini = 0.496\nsamples = 807\nvalue = [440, 367]"] ;
654 -> 736 ;
737 [label="X[97] <= 0.5\ngini = 0.444\nsamples = 451\nvalue = [301, 150]"] ;
736 -> 737 ;
738 [label="X[3] <= 14.5\ngini = 0.497\nsamples = 181\nvalue = [97, 84]"] ;
737 -> 738 ;
739 [label="X[90] <= 0.5\ngini = 0.485\nsamples = 157\nvalue = [92, 65]"] ;
738 -> 739 ;
740 [label="X[105] <= 0.5\ngini = 0.269\nsamples = 25\nvalue = [21, 4]"] ;
739 -> 740 ;
741 [label="X[72] <= 0.5\ngini = 0.165\nsamples = 22\nvalue = [20, 2]"] ;
740 -> 741 ;
742 [label="X[83] <= 0.5\ngini = 0.095\nsamples = 20\nvalue = [19, 1]"] ;
741 -> 742 ;
743 [label="gini = 0.0\nsamples = 17\nvalue = [17, 0]"] ;
742 -> 743 ;
744 [label="X[20] <= 159157.0\ngini = 0.444\nsamples = 3\nvalue = [2, 1]"] ;
742 -> 744 ;
745 [label="gini = 0.0\nsamples = 1\nvalue = [0, 1]"] ;
744 -> 745 ;
746 [label="gini = 0.0\nsamples = 2\nvalue = [2, 0]"] ;
744 -> 746 ;
747 [label="X[26] <= 0.5\ngini = 0.5\nsamples = 2\nvalue = [1, 1]"] ;
741 -> 747 ;
748 [label="gini = 0.0\nsamples = 1\nvalue = [1, 0]"] ;
747 -> 748 ;
749 [label="gini = 0.0\nsamples = 1\nvalue = [0, 1]"] ;
747 -> 749 ;
750 [label="X[20] <= 215130.5\ngini = 0.444\nsamples = 3\nvalue = [1, 2]"] ;
740 -> 750 ;
751 [label="gini = 0.0\nsamples = 2\nvalue = [0, 2]"] ;
750 -> 751 ;
752 [label="gini = 0.0\nsamples = 1\nvalue = [1, 0]"] ;
750 -> 752 ;
753 [label="X[100] <= 0.5\ngini = 0.497\nsamples = 132\nvalue = [71, 61]"] ;
739 -> 753 ;
754 [label="X[2] <= 2067.0\ngini = 0.493\nsamples = 123\nvalue = [69, 54]"] ;
753 -> 754 ;
755 [label="X[83] <= 0.5\ngini = 0.487\nsamples = 119\nvalue = [69, 50]"] ;
754 -> 755 ;
756 [label="X[3] <= 13.5\ngini = 0.472\nsamples = 102\nvalue = [63, 39]"] ;
755 -> 756 ;
757 [label="X[82] <= 0.5\ngini = 0.435\nsamples = 72\nvalue = [49, 23]"] ;
756 -> 757 ;
758 [label="X[0] <= 38.5\ngini = 0.412\nsamples = 69\nvalue = [49, 20]"] ;
757 -> 758 ;
759 [label="X[105] <= 0.5\ngini = 0.236\nsamples = 22\nvalue = [19, 3]"] ;
758 -> 759 ;
760 [label="X[20] <= 139688.0\ngini = 0.172\nsamples = 21\nvalue = [19, 2]"] ;
759 -> 760 ;
761 [label="X[20] <= 134457.0\ngini = 0.375\nsamples = 8\nvalue = [6, 2]"] ;
760 -> 761 ;
762 [label="X[81] <= 0.5\ngini = 0.245\nsamples = 7\nvalue = [6, 1]"] ;
761 -> 762 ;
763 [label="gini = 0.0\nsamples = 4\nvalue = [4, 0]"] ;
762 -> 763 ;
764 [label="X[20] <= 112930.5\ngini = 0.444\nsamples = 3\nvalue = [2, 1]"] ;
762 -> 764 ;
765 [label="gini = 0.0\nsamples = 2\nvalue = [2, 0]"] ;
764 -> 765 ;
766 [label="gini = 0.0\nsamples = 1\nvalue = [0, 1]"] ;
764 -> 766 ;
767 [label="gini = 0.0\nsamples = 1\nvalue = [0, 1]"] ;
761 -> 767 ;
768 [label="gini = 0.0\nsamples = 13\nvalue = [13, 0]"] ;
760 -> 768 ;
769 [label="gini = 0.0\nsamples = 1\nvalue = [0, 1]"] ;
759 -> 769 ;
770 [label="X[103] <= 0.5\ngini = 0.462\nsamples = 47\nvalue = [30, 17]"] ;
758 -> 770 ;
771 [label="X[99] <= 0.5\ngini = 0.266\nsamples = 19\nvalue = [16, 3]"] ;
770 -> 771 ;
772 [label="X[0] <= 39.5\ngini = 0.198\nsamples = 18\nvalue = [16, 2]"] ;
771 -> 772 ;
773 [label="gini = 0.0\nsamples = 1\nvalue = [0, 1]"] ;
772 -> 773 ;
774 [label="X[101] <= 0.5\ngini = 0.111\nsamples = 17\nvalue = [16, 1]"] ;
772 -> 774 ;
775 [label="gini = 0.0\nsamples = 14\nvalue = [14, 0]"] ;
774 -> 775 ;
776 [label="X[25] <= 0.5\ngini = 0.444\nsamples = 3\nvalue = [2, 1]"] ;
774 -> 776 ;
777 [label="X[95] <= 0.5\ngini = 0.5\nsamples = 2\nvalue = [1, 1]"] ;
776 -> 777 ;
778 [label="gini = 0.0\nsamples = 1\nvalue = [0, 1]"] ;
777 -> 778 ;
779 [label="gini = 0.0\nsamples = 1\nvalue = [1, 0]"] ;
777 -> 779 ;
780 [label="gini = 0.0\nsamples = 1\nvalue = [1, 0]"] ;
776 -> 780 ;
781 [label="gini = 0.0\nsamples = 1\nvalue = [0, 1]"] ;
771 -> 781 ;
782 [label="X[0] <= 50.0\ngini = 0.5\nsamples = 28\nvalue = [14, 14]"] ;
770 -> 782 ;
783 [label="X[21] <= 36.0\ngini = 0.491\nsamples = 23\nvalue = [13, 10]"] ;
782 -> 783 ;
784 [label="gini = 0.0\nsamples = 4\nvalue = [4, 0]"] ;
783 -> 784 ;
785 [label="X[20] <= 253780.5\ngini = 0.499\nsamples = 19\nvalue = [9, 10]"] ;
783 -> 785 ;
786 [label="X[20] <= 207018.5\ngini = 0.48\nsamples = 15\nvalue = [9, 6]"] ;
785 -> 786 ;
787 [label="X[22] <= 0.5\ngini = 0.5\nsamples = 12\nvalue = [6, 6]"] ;
786 -> 787 ;
788 [label="X[72] <= 0.5\ngini = 0.408\nsamples = 7\nvalue = [2, 5]"] ;
787 -> 788 ;
789 [label="X[20] <= 91967.0\ngini = 0.278\nsamples = 6\nvalue = [1, 5]"] ;
788 -> 789 ;
790 [label="gini = 0.0\nsamples = 1\nvalue = [1, 0]"] ;
789 -> 790 ;
791 [label="gini = 0.0\nsamples = 5\nvalue = [0, 5]"] ;
789 -> 791 ;
792 [label="gini = 0.0\nsamples = 1\nvalue = [1, 0]"] ;
788 -> 792 ;
793 [label="X[20] <= 192968.0\ngini = 0.32\nsamples = 5\nvalue = [4, 1]"] ;
787 -> 793 ;
794 [label="gini = 0.0\nsamples = 4\nvalue = [4, 0]"] ;
793 -> 794 ;
795 [label="gini = 0.0\nsamples = 1\nvalue = [0, 1]"] ;
793 -> 795 ;
796 [label="gini = 0.0\nsamples = 3\nvalue = [3, 0]"] ;
786 -> 796 ;
797 [label="gini = 0.0\nsamples = 4\nvalue = [0, 4]"] ;
785 -> 797 ;
798 [label="X[0] <= 65.5\ngini = 0.32\nsamples = 5\nvalue = [1, 4]"] ;
782 -> 798 ;
799 [label="gini = 0.0\nsamples = 4\nvalue = [0, 4]"] ;
798 -> 799 ;
800 [label="gini = 0.0\nsamples = 1\nvalue = [1, 0]"] ;
798 -> 800 ;
801 [label="gini = 0.0\nsamples = 3\nvalue = [0, 3]"] ;
757 -> 801 ;
802 [label="X[0] <= 37.5\ngini = 0.498\nsamples = 30\nvalue = [14, 16]"] ;
756 -> 802 ;
803 [label="X[94] <= 0.5\ngini = 0.278\nsamples = 6\nvalue = [1, 5]"] ;
802 -> 803 ;
804 [label="gini = 0.0\nsamples = 4\nvalue = [0, 4]"] ;
803 -> 804 ;
805 [label="X[21] <= 42.0\ngini = 0.5\nsamples = 2\nvalue = [1, 1]"] ;
803 -> 805 ;
806 [label="gini = 0.0\nsamples = 1\nvalue = [1, 0]"] ;
805 -> 806 ;
807 [label="gini = 0.0\nsamples = 1\nvalue = [0, 1]"] ;
805 -> 807 ;
808 [label="X[21] <= 41.0\ngini = 0.497\nsamples = 24\nvalue = [13, 11]"] ;
802 -> 808 ;
809 [label="X[99] <= 0.5\ngini = 0.499\nsamples = 21\nvalue = [10, 11]"] ;
808 -> 809 ;
810 [label="X[0] <= 45.5\ngini = 0.488\nsamples = 19\nvalue = [8, 11]"] ;
809 -> 810 ;
811 [label="X[26] <= 0.5\ngini = 0.469\nsamples = 8\nvalue = [5, 3]"] ;
810 -> 811 ;
812 [label="gini = 0.0\nsamples = 3\nvalue = [3, 0]"] ;
811 -> 812 ;
813 [label="X[20] <= 219662.5\ngini = 0.48\nsamples = 5\nvalue = [2, 3]"] ;
811 -> 813 ;
814 [label="gini = 0.0\nsamples = 3\nvalue = [0, 3]"] ;
813 -> 814 ;
815 [label="gini = 0.0\nsamples = 2\nvalue = [2, 0]"] ;
813 -> 815 ;
816 [label="X[81] <= 0.5\ngini = 0.397\nsamples = 11\nvalue = [3, 8]"] ;
810 -> 816 ;
817 [label="X[84] <= 0.5\ngini = 0.5\nsamples = 6\nvalue = [3, 3]"] ;
816 -> 817 ;
818 [label="X[20] <= 365061.5\ngini = 0.375\nsamples = 4\nvalue = [3, 1]"] ;
817 -> 818 ;
819 [label="gini = 0.0\nsamples = 3\nvalue = [3, 0]"] ;
818 -> 819 ;
820 [label="gini = 0.0\nsamples = 1\nvalue = [0, 1]"] ;
818 -> 820 ;
821 [label="gini = 0.0\nsamples = 2\nvalue = [0, 2]"] ;
817 -> 821 ;
822 [label="gini = 0.0\nsamples = 5\nvalue = [0, 5]"] ;
816 -> 822 ;
823 [label="gini = 0.0\nsamples = 2\nvalue = [2, 0]"] ;
809 -> 823 ;
824 [label="gini = 0.0\nsamples = 3\nvalue = [3, 0]"] ;
808 -> 824 ;
825 [label="X[20] <= 202960.0\ngini = 0.457\nsamples = 17\nvalue = [6, 11]"] ;
755 -> 825 ;
826 [label="X[21] <= 37.5\ngini = 0.5\nsamples = 12\nvalue = [6, 6]"] ;
825 -> 826 ;
827 [label="gini = 0.0\nsamples = 2\nvalue = [2, 0]"] ;
826 -> 827 ;
828 [label="X[20] <= 123301.5\ngini = 0.48\nsamples = 10\nvalue = [4, 6]"] ;
826 -> 828 ;
829 [label="gini = 0.0\nsamples = 4\nvalue = [0, 4]"] ;
828 -> 829 ;
830 [label="X[0] <= 37.5\ngini = 0.444\nsamples = 6\nvalue = [4, 2]"] ;
828 -> 830 ;
831 [label="X[0] <= 32.0\ngini = 0.444\nsamples = 3\nvalue = [1, 2]"] ;
830 -> 831 ;
832 [label="gini = 0.0\nsamples = 1\nvalue = [1, 0]"] ;
831 -> 832 ;
833 [label="gini = 0.0\nsamples = 2\nvalue = [0, 2]"] ;
831 -> 833 ;
834 [label="gini = 0.0\nsamples = 3\nvalue = [3, 0]"] ;
830 -> 834 ;
835 [label="gini = 0.0\nsamples = 5\nvalue = [0, 5]"] ;
825 -> 835 ;
836 [label="gini = 0.0\nsamples = 4\nvalue = [0, 4]"] ;
754 -> 836 ;
837 [label="X[0] <= 50.0\ngini = 0.346\nsamples = 9\nvalue = [2, 7]"] ;
753 -> 837 ;
838 [label="gini = 0.0\nsamples = 7\nvalue = [0, 7]"] ;
837 -> 838 ;
839 [label="gini = 0.0\nsamples = 2\nvalue = [2, 0]"] ;
837 -> 839 ;
840 [label="X[0] <= 31.5\ngini = 0.33\nsamples = 24\nvalue = [5, 19]"] ;
738 -> 840 ;
841 [label="gini = 0.0\nsamples = 2\nvalue = [2, 0]"] ;
840 -> 841 ;
842 [label="X[20] <= 91871.5\ngini = 0.236\nsamples = 22\nvalue = [3, 19]"] ;
840 -> 842 ;
843 [label="X[20] <= 64813.0\ngini = 0.444\nsamples = 3\nvalue = [2, 1]"] ;
842 -> 843 ;
844 [label="gini = 0.0\nsamples = 1\nvalue = [0, 1]"] ;
843 -> 844 ;
845 [label="gini = 0.0\nsamples = 2\nvalue = [2, 0]"] ;
843 -> 845 ;
846 [label="X[29] <= 0.5\ngini = 0.1\nsamples = 19\nvalue = [1, 18]"] ;
842 -> 846 ;
847 [label="gini = 0.0\nsamples = 18\nvalue = [0, 18]"] ;
846 -> 847 ;
848 [label="gini = 0.0\nsamples = 1\nvalue = [1, 0]"] ;
846 -> 848 ;
849 [label="X[2] <= 2443.0\ngini = 0.369\nsamples = 270\nvalue = [204, 66]"] ;
737 -> 849 ;
850 [label="X[14] <= 0.5\ngini = 0.354\nsamples = 265\nvalue = [204, 61]"] ;
849 -> 850 ;
851 [label="X[0] <= 44.5\ngini = 0.336\nsamples = 253\nvalue = [199, 54]"] ;
850 -> 851 ;
852 [label="X[20] <= 169052.0\ngini = 0.254\nsamples = 134\nvalue = [114, 20]"] ;
851 -> 852 ;
853 [label="X[28] <= 0.5\ngini = 0.056\nsamples = 69\nvalue = [67, 2]"] ;
852 -> 853 ;
854 [label="X[59] <= 0.5\ngini = 0.029\nsamples = 68\nvalue = [67, 1]"] ;
853 -> 854 ;
855 [label="gini = 0.0\nsamples = 65\nvalue = [65, 0]"] ;
854 -> 855 ;
856 [label="X[81] <= 0.5\ngini = 0.444\nsamples = 3\nvalue = [2, 1]"] ;
854 -> 856 ;
857 [label="gini = 0.0\nsamples = 2\nvalue = [2, 0]"] ;
856 -> 857 ;
858 [label="gini = 0.0\nsamples = 1\nvalue = [0, 1]"] ;
856 -> 858 ;
859 [label="gini = 0.0\nsamples = 1\nvalue = [0, 1]"] ;
853 -> 859 ;
860 [label="X[20] <= 170192.0\ngini = 0.4\nsamples = 65\nvalue = [47, 18]"] ;
852 -> 860 ;
861 [label="gini = 0.0\nsamples = 3\nvalue = [0, 3]"] ;
860 -> 861 ;
862 [label="X[0] <= 33.5\ngini = 0.367\nsamples = 62\nvalue = [47, 15]"] ;
860 -> 862 ;
863 [label="gini = 0.0\nsamples = 13\nvalue = [13, 0]"] ;
862 -> 863 ;
864 [label="X[81] <= 0.5\ngini = 0.425\nsamples = 49\nvalue = [34, 15]"] ;
862 -> 864 ;
865 [label="X[20] <= 328199.5\ngini = 0.26\nsamples = 26\nvalue = [22, 4]"] ;
864 -> 865 ;
866 [label="X[16] <= 0.5\ngini = 0.165\nsamples = 22\nvalue = [20, 2]"] ;
865 -> 866 ;
867 [label="gini = 0.0\nsamples = 15\nvalue = [15, 0]"] ;
866 -> 867 ;
868 [label="X[20] <= 199825.0\ngini = 0.408\nsamples = 7\nvalue = [5, 2]"] ;
866 -> 868 ;
869 [label="gini = 0.0\nsamples = 1\nvalue = [0, 1]"] ;
868 -> 869 ;
870 [label="X[20] <= 255307.0\ngini = 0.278\nsamples = 6\nvalue = [5, 1]"] ;
868 -> 870 ;
871 [label="gini = 0.0\nsamples = 4\nvalue = [4, 0]"] ;
870 -> 871 ;
872 [label="X[105] <= 0.5\ngini = 0.5\nsamples = 2\nvalue = [1, 1]"] ;
870 -> 872 ;
873 [label="gini = 0.0\nsamples = 1\nvalue = [0, 1]"] ;
872 -> 873 ;
874 [label="gini = 0.0\nsamples = 1\nvalue = [1, 0]"] ;
872 -> 874 ;
875 [label="X[20] <= 459924.5\ngini = 0.5\nsamples = 4\nvalue = [2, 2]"] ;
865 -> 875 ;
876 [label="gini = 0.0\nsamples = 2\nvalue = [0, 2]"] ;
875 -> 876 ;
877 [label="gini = 0.0\nsamples = 2\nvalue = [2, 0]"] ;
875 -> 877 ;
878 [label="X[103] <= 0.5\ngini = 0.499\nsamples = 23\nvalue = [12, 11]"] ;
864 -> 878 ;
879 [label="X[0] <= 41.5\ngini = 0.298\nsamples = 11\nvalue = [9, 2]"] ;
878 -> 879 ;
880 [label="X[105] <= 0.5\ngini = 0.18\nsamples = 10\nvalue = [9, 1]"] ;
879 -> 880 ;
881 [label="gini = 0.0\nsamples = 8\nvalue = [8, 0]"] ;
880 -> 881 ;
882 [label="X[22] <= 0.5\ngini = 0.5\nsamples = 2\nvalue = [1, 1]"] ;
880 -> 882 ;
883 [label="gini = 0.0\nsamples = 1\nvalue = [1, 0]"] ;
882 -> 883 ;
884 [label="gini = 0.0\nsamples = 1\nvalue = [0, 1]"] ;
882 -> 884 ;
885 [label="gini = 0.0\nsamples = 1\nvalue = [0, 1]"] ;
879 -> 885 ;
886 [label="X[95] <= 0.5\ngini = 0.375\nsamples = 12\nvalue = [3, 9]"] ;
878 -> 886 ;
887 [label="X[20] <= 182248.5\ngini = 0.198\nsamples = 9\nvalue = [1, 8]"] ;
886 -> 887 ;
888 [label="gini = 0.0\nsamples = 1\nvalue = [1, 0]"] ;
887 -> 888 ;
889 [label="gini = 0.0\nsamples = 8\nvalue = [0, 8]"] ;
887 -> 889 ;
890 [label="X[20] <= 185868.0\ngini = 0.444\nsamples = 3\nvalue = [2, 1]"] ;
886 -> 890 ;
891 [label="gini = 0.0\nsamples = 1\nvalue = [0, 1]"] ;
890 -> 891 ;
892 [label="gini = 0.0\nsamples = 2\nvalue = [2, 0]"] ;
890 -> 892 ;
893 [label="X[21] <= 39.5\ngini = 0.408\nsamples = 119\nvalue = [85, 34]"] ;
851 -> 893 ;
894 [label="X[87] <= 0.5\ngini = 0.245\nsamples = 42\nvalue = [36, 6]"] ;
893 -> 894 ;
895 [label="X[20] <= 163164.5\ngini = 0.184\nsamples = 39\nvalue = [35, 4]"] ;
894 -> 895 ;
896 [label="X[72] <= 0.5\ngini = 0.067\nsamples = 29\nvalue = [28, 1]"] ;
895 -> 896 ;
897 [label="gini = 0.0\nsamples = 26\nvalue = [26, 0]"] ;
896 -> 897 ;
898 [label="X[20] <= 122500.0\ngini = 0.444\nsamples = 3\nvalue = [2, 1]"] ;
896 -> 898 ;
899 [label="gini = 0.0\nsamples = 2\nvalue = [2, 0]"] ;
898 -> 899 ;
900 [label="gini = 0.0\nsamples = 1\nvalue = [0, 1]"] ;
898 -> 900 ;
901 [label="X[21] <= 31.0\ngini = 0.42\nsamples = 10\nvalue = [7, 3]"] ;
895 -> 901 ;
902 [label="gini = 0.0\nsamples = 5\nvalue = [5, 0]"] ;
901 -> 902 ;
903 [label="X[21] <= 36.0\ngini = 0.48\nsamples = 5\nvalue = [2, 3]"] ;
901 -> 903 ;
904 [label="gini = 0.0\nsamples = 3\nvalue = [0, 3]"] ;
903 -> 904 ;
905 [label="gini = 0.0\nsamples = 2\nvalue = [2, 0]"] ;
903 -> 905 ;
906 [label="X[20] <= 54073.0\ngini = 0.444\nsamples = 3\nvalue = [1, 2]"] ;
894 -> 906 ;
907 [label="gini = 0.0\nsamples = 1\nvalue = [1, 0]"] ;
906 -> 907 ;
908 [label="gini = 0.0\nsamples = 2\nvalue = [0, 2]"] ;
906 -> 908 ;
909 [label="X[20] <= 37440.0\ngini = 0.463\nsamples = 77\nvalue = [49, 28]"] ;
893 -> 909 ;
910 [label="gini = 0.0\nsamples = 3\nvalue = [0, 3]"] ;
909 -> 910 ;
911 [label="X[72] <= 0.5\ngini = 0.447\nsamples = 74\nvalue = [49, 25]"] ;
909 -> 911 ;
912 [label="X[0] <= 58.5\ngini = 0.48\nsamples = 60\nvalue = [36, 24]"] ;
911 -> 912 ;
913 [label="X[75] <= 0.5\ngini = 0.43\nsamples = 48\nvalue = [33, 15]"] ;
912 -> 913 ;
914 [label="X[83] <= 0.5\ngini = 0.361\nsamples = 38\nvalue = [29, 9]"] ;
913 -> 914 ;
915 [label="X[20] <= 290019.5\ngini = 0.339\nsamples = 37\nvalue = [29, 8]"] ;
914 -> 915 ;
916 [label="X[2] <= 1740.5\ngini = 0.313\nsamples = 36\nvalue = [29, 7]"] ;
915 -> 916 ;
917 [label="X[101] <= 0.5\ngini = 0.284\nsamples = 35\nvalue = [29, 6]"] ;
916 -> 917 ;
918 [label="X[87] <= 0.5\ngini = 0.147\nsamples = 25\nvalue = [23, 2]"] ;
917 -> 918 ;
919 [label="X[0] <= 45.5\ngini = 0.083\nsamples = 23\nvalue = [22, 1]"] ;
918 -> 919 ;
920 [label="X[106] <= 0.5\ngini = 0.444\nsamples = 3\nvalue = [2, 1]"] ;
919 -> 920 ;
921 [label="gini = 0.0\nsamples = 1\nvalue = [0, 1]"] ;
920 -> 921 ;
922 [label="gini = 0.0\nsamples = 2\nvalue = [2, 0]"] ;
920 -> 922 ;
923 [label="gini = 0.0\nsamples = 20\nvalue = [20, 0]"] ;
919 -> 923 ;
924 [label="X[103] <= 0.5\ngini = 0.5\nsamples = 2\nvalue = [1, 1]"] ;
918 -> 924 ;
925 [label="gini = 0.0\nsamples = 1\nvalue = [0, 1]"] ;
924 -> 925 ;
926 [label="gini = 0.0\nsamples = 1\nvalue = [1, 0]"] ;
924 -> 926 ;
927 [label="X[95] <= 0.5\ngini = 0.48\nsamples = 10\nvalue = [6, 4]"] ;
917 -> 927 ;
928 [label="gini = 0.0\nsamples = 3\nvalue = [0, 3]"] ;
927 -> 928 ;
929 [label="X[13] <= 0.5\ngini = 0.245\nsamples = 7\nvalue = [6, 1]"] ;
927 -> 929 ;
930 [label="gini = 0.0\nsamples = 6\nvalue = [6, 0]"] ;
929 -> 930 ;
931 [label="gini = 0.0\nsamples = 1\nvalue = [0, 1]"] ;
929 -> 931 ;
932 [label="gini = 0.0\nsamples = 1\nvalue = [0, 1]"] ;
916 -> 932 ;
933 [label="gini = 0.0\nsamples = 1\nvalue = [0, 1]"] ;
915 -> 933 ;
934 [label="gini = 0.0\nsamples = 1\nvalue = [0, 1]"] ;
914 -> 934 ;
935 [label="X[0] <= 48.5\ngini = 0.48\nsamples = 10\nvalue = [4, 6]"] ;
913 -> 935 ;
936 [label="gini = 0.0\nsamples = 4\nvalue = [0, 4]"] ;
935 -> 936 ;
937 [label="X[22] <= 0.5\ngini = 0.444\nsamples = 6\nvalue = [4, 2]"] ;
935 -> 937 ;
938 [label="gini = 0.0\nsamples = 3\nvalue = [3, 0]"] ;
937 -> 938 ;
939 [label="X[92] <= 0.5\ngini = 0.444\nsamples = 3\nvalue = [1, 2]"] ;
937 -> 939 ;
940 [label="gini = 0.0\nsamples = 2\nvalue = [0, 2]"] ;
939 -> 940 ;
941 [label="gini = 0.0\nsamples = 1\nvalue = [1, 0]"] ;
939 -> 941 ;
942 [label="X[0] <= 69.5\ngini = 0.375\nsamples = 12\nvalue = [3, 9]"] ;
912 -> 942 ;
943 [label="X[25] <= 0.5\ngini = 0.18\nsamples = 10\nvalue = [1, 9]"] ;
942 -> 943 ;
944 [label="gini = 0.0\nsamples = 9\nvalue = [0, 9]"] ;
943 -> 944 ;
945 [label="gini = 0.0\nsamples = 1\nvalue = [1, 0]"] ;
943 -> 945 ;
946 [label="gini = 0.0\nsamples = 2\nvalue = [2, 0]"] ;
942 -> 946 ;
947 [label="X[0] <= 45.5\ngini = 0.133\nsamples = 14\nvalue = [13, 1]"] ;
911 -> 947 ;
948 [label="gini = 0.0\nsamples = 1\nvalue = [0, 1]"] ;
947 -> 948 ;
949 [label="gini = 0.0\nsamples = 13\nvalue = [13, 0]"] ;
947 -> 949 ;
950 [label="X[106] <= 0.5\ngini = 0.486\nsamples = 12\nvalue = [5, 7]"] ;
850 -> 950 ;
951 [label="X[26] <= 0.5\ngini = 0.408\nsamples = 7\nvalue = [5, 2]"] ;
950 -> 951 ;
952 [label="X[88] <= 0.5\ngini = 0.278\nsamples = 6\nvalue = [5, 1]"] ;
951 -> 952 ;
953 [label="gini = 0.0\nsamples = 5\nvalue = [5, 0]"] ;
952 -> 953 ;
954 [label="gini = 0.0\nsamples = 1\nvalue = [0, 1]"] ;
952 -> 954 ;
955 [label="gini = 0.0\nsamples = 1\nvalue = [0, 1]"] ;
951 -> 955 ;
956 [label="gini = 0.0\nsamples = 5\nvalue = [0, 5]"] ;
950 -> 956 ;
957 [label="gini = 0.0\nsamples = 5\nvalue = [0, 5]"] ;
849 -> 957 ;
958 [label="X[1] <= 457.0\ngini = 0.476\nsamples = 356\nvalue = [139, 217]"] ;
736 -> 958 ;
959 [label="X[99] <= 0.5\ngini = 0.469\nsamples = 348\nvalue = [131, 217]"] ;
958 -> 959 ;
960 [label="X[0] <= 31.5\ngini = 0.463\nsamples = 341\nvalue = [124, 217]"] ;
959 -> 960 ;
961 [label="X[20] <= 155292.0\ngini = 0.486\nsamples = 36\nvalue = [21, 15]"] ;
960 -> 961 ;
962 [label="X[20] <= 79995.0\ngini = 0.219\nsamples = 16\nvalue = [14, 2]"] ;
961 -> 962 ;
963 [label="gini = 0.0\nsamples = 10\nvalue = [10, 0]"] ;
962 -> 963 ;
964 [label="X[20] <= 124744.5\ngini = 0.444\nsamples = 6\nvalue = [4, 2]"] ;
962 -> 964 ;
965 [label="gini = 0.0\nsamples = 2\nvalue = [0, 2]"] ;
964 -> 965 ;
966 [label="gini = 0.0\nsamples = 4\nvalue = [4, 0]"] ;
964 -> 966 ;
967 [label="X[94] <= 0.5\ngini = 0.455\nsamples = 20\nvalue = [7, 13]"] ;
961 -> 967 ;
968 [label="X[72] <= 0.5\ngini = 0.401\nsamples = 18\nvalue = [5, 13]"] ;
967 -> 968 ;
969 [label="X[18] <= 0.5\ngini = 0.305\nsamples = 16\nvalue = [3, 13]"] ;
968 -> 969 ;
970 [label="X[75] <= 0.5\ngini = 0.142\nsamples = 13\nvalue = [1, 12]"] ;
969 -> 970 ;
971 [label="gini = 0.0\nsamples = 8\nvalue = [0, 8]"] ;
970 -> 971 ;
972 [label="X[0] <= 30.5\ngini = 0.32\nsamples = 5\nvalue = [1, 4]"] ;
970 -> 972 ;
973 [label="gini = 0.0\nsamples = 3\nvalue = [0, 3]"] ;
972 -> 973 ;
974 [label="X[21] <= 52.5\ngini = 0.5\nsamples = 2\nvalue = [1, 1]"] ;
972 -> 974 ;
975 [label="gini = 0.0\nsamples = 1\nvalue = [0, 1]"] ;
974 -> 975 ;
976 [label="gini = 0.0\nsamples = 1\nvalue = [1, 0]"] ;
974 -> 976 ;
977 [label="X[26] <= 0.5\ngini = 0.444\nsamples = 3\nvalue = [2, 1]"] ;
969 -> 977 ;
978 [label="gini = 0.0\nsamples = 1\nvalue = [0, 1]"] ;
977 -> 978 ;
979 [label="gini = 0.0\nsamples = 2\nvalue = [2, 0]"] ;
977 -> 979 ;
980 [label="gini = 0.0\nsamples = 2\nvalue = [2, 0]"] ;
968 -> 980 ;
981 [label="gini = 0.0\nsamples = 2\nvalue = [2, 0]"] ;
967 -> 981 ;
982 [label="X[3] <= 14.5\ngini = 0.447\nsamples = 305\nvalue = [103, 202]"] ;
960 -> 982 ;
983 [label="X[97] <= 0.5\ngini = 0.468\nsamples = 254\nvalue = [95, 159]"] ;
982 -> 983 ;
984 [label="X[94] <= 0.5\ngini = 0.411\nsamples = 149\nvalue = [43, 106]"] ;
983 -> 984 ;
985 [label="X[0] <= 57.0\ngini = 0.375\nsamples = 140\nvalue = [35, 105]"] ;
984 -> 985 ;
986 [label="X[0] <= 48.5\ngini = 0.344\nsamples = 127\nvalue = [28, 99]"] ;
985 -> 986 ;
987 [label="X[106] <= 0.5\ngini = 0.396\nsamples = 103\nvalue = [28, 75]"] ;
986 -> 987 ;
988 [label="X[3] <= 13.5\ngini = 0.375\nsamples = 100\nvalue = [25, 75]"] ;
987 -> 988 ;
989 [label="X[20] <= 148772.0\ngini = 0.435\nsamples = 75\nvalue = [24, 51]"] ;
988 -> 989 ;
990 [label="X[20] <= 39286.5\ngini = 0.497\nsamples = 26\nvalue = [12, 14]"] ;
989 -> 990 ;
991 [label="gini = 0.0\nsamples = 5\nvalue = [0, 5]"] ;
990 -> 991 ;
992 [label="X[0] <= 34.5\ngini = 0.49\nsamples = 21\nvalue = [12, 9]"] ;
990 -> 992 ;
993 [label="gini = 0.0\nsamples = 4\nvalue = [4, 0]"] ;
992 -> 993 ;
994 [label="X[0] <= 47.5\ngini = 0.498\nsamples = 17\nvalue = [8, 9]"] ;
992 -> 994 ;
995 [label="X[20] <= 115902.0\ngini = 0.459\nsamples = 14\nvalue = [5, 9]"] ;
994 -> 995 ;
996 [label="X[26] <= 0.5\ngini = 0.5\nsamples = 10\nvalue = [5, 5]"] ;
995 -> 996 ;
997 [label="X[105] <= 0.5\ngini = 0.278\nsamples = 6\nvalue = [1, 5]"] ;
996 -> 997 ;
998 [label="gini = 0.0\nsamples = 5\nvalue = [0, 5]"] ;
997 -> 998 ;
999 [label="gini = 0.0\nsamples = 1\nvalue = [1, 0]"] ;
997 -> 999 ;
1000 [label="gini = 0.0\nsamples = 4\nvalue = [4, 0]"] ;
996 -> 1000 ;
1001 [label="gini = 0.0\nsamples = 4\nvalue = [0, 4]"] ;
995 -> 1001 ;
1002 [label="gini = 0.0\nsamples = 3\nvalue = [3, 0]"] ;
994 -> 1002 ;
1003 [label="X[20] <= 231621.5\ngini = 0.37\nsamples = 49\nvalue = [12, 37]"] ;
989 -> 1003 ;
1004 [label="X[82] <= 0.5\ngini = 0.147\nsamples = 25\nvalue = [2, 23]"] ;
1003 -> 1004 ;
1005 [label="X[95] <= 0.5\ngini = 0.083\nsamples = 23\nvalue = [1, 22]"] ;
1004 -> 1005 ;
1006 [label="gini = 0.0\nsamples = 21\nvalue = [0, 21]"] ;
1005 -> 1006 ;
1007 [label="X[75] <= 0.5\ngini = 0.5\nsamples = 2\nvalue = [1, 1]"] ;
1005 -> 1007 ;
1008 [label="gini = 0.0\nsamples = 1\nvalue = [1, 0]"] ;
1007 -> 1008 ;
1009 [label="gini = 0.0\nsamples = 1\nvalue = [0, 1]"] ;
1007 -> 1009 ;
1010 [label="X[21] <= 52.5\ngini = 0.5\nsamples = 2\nvalue = [1, 1]"] ;
1004 -> 1010 ;
1011 [label="gini = 0.0\nsamples = 1\nvalue = [1, 0]"] ;
1010 -> 1011 ;
1012 [label="gini = 0.0\nsamples = 1\nvalue = [0, 1]"] ;
1010 -> 1012 ;
1013 [label="X[93] <= 0.5\ngini = 0.486\nsamples = 24\nvalue = [10, 14]"] ;
1003 -> 1013 ;
1014 [label="X[20] <= 254365.0\ngini = 0.463\nsamples = 22\nvalue = [8, 14]"] ;
1013 -> 1014 ;
1015 [label="X[105] <= 0.5\ngini = 0.375\nsamples = 4\nvalue = [3, 1]"] ;
1014 -> 1015 ;
1016 [label="gini = 0.0\nsamples = 3\nvalue = [3, 0]"] ;
1015 -> 1016 ;
1017 [label="gini = 0.0\nsamples = 1\nvalue = [0, 1]"] ;
1015 -> 1017 ;
1018 [label="X[90] <= 0.5\ngini = 0.401\nsamples = 18\nvalue = [5, 13]"] ;
1014 -> 1018 ;
1019 [label="gini = 0.0\nsamples = 5\nvalue = [0, 5]"] ;
1018 -> 1019 ;
1020 [label="X[105] <= 0.5\ngini = 0.473\nsamples = 13\nvalue = [5, 8]"] ;
1018 -> 1020 ;
1021 [label="X[0] <= 39.5\ngini = 0.444\nsamples = 12\nvalue = [4, 8]"] ;
1020 -> 1021 ;
1022 [label="X[21] <= 46.5\ngini = 0.5\nsamples = 6\nvalue = [3, 3]"] ;
1021 -> 1022 ;
1023 [label="gini = 0.0\nsamples = 1\nvalue = [1, 0]"] ;
1022 -> 1023 ;
1024 [label="X[0] <= 37.5\ngini = 0.48\nsamples = 5\nvalue = [2, 3]"] ;
1022 -> 1024 ;
1025 [label="gini = 0.0\nsamples = 2\nvalue = [0, 2]"] ;
1024 -> 1025 ;
1026 [label="X[20] <= 576805.0\ngini = 0.444\nsamples = 3\nvalue = [2, 1]"] ;
1024 -> 1026 ;
1027 [label="gini = 0.0\nsamples = 2\nvalue = [2, 0]"] ;
1026 -> 1027 ;
1028 [label="gini = 0.0\nsamples = 1\nvalue = [0, 1]"] ;
1026 -> 1028 ;
1029 [label="X[81] <= 0.5\ngini = 0.278\nsamples = 6\nvalue = [1, 5]"] ;
1021 -> 1029 ;
1030 [label="gini = 0.0\nsamples = 4\nvalue = [0, 4]"] ;
1029 -> 1030 ;
1031 [label="X[103] <= 0.5\ngini = 0.5\nsamples = 2\nvalue = [1, 1]"] ;
1029 -> 1031 ;
1032 [label="gini = 0.0\nsamples = 1\nvalue = [1, 0]"] ;
1031 -> 1032 ;
1033 [label="gini = 0.0\nsamples = 1\nvalue = [0, 1]"] ;
1031 -> 1033 ;
1034 [label="gini = 0.0\nsamples = 1\nvalue = [1, 0]"] ;
1020 -> 1034 ;
1035 [label="gini = 0.0\nsamples = 2\nvalue = [2, 0]"] ;
1013 -> 1035 ;
1036 [label="X[20] <= 36849.5\ngini = 0.077\nsamples = 25\nvalue = [1, 24]"] ;
988 -> 1036 ;
1037 [label="X[20] <= 35180.0\ngini = 0.5\nsamples = 2\nvalue = [1, 1]"] ;
1036 -> 1037 ;
1038 [label="gini = 0.0\nsamples = 1\nvalue = [0, 1]"] ;
1037 -> 1038 ;
1039 [label="gini = 0.0\nsamples = 1\nvalue = [1, 0]"] ;
1037 -> 1039 ;
1040 [label="gini = 0.0\nsamples = 23\nvalue = [0, 23]"] ;
1036 -> 1040 ;
1041 [label="gini = 0.0\nsamples = 3\nvalue = [3, 0]"] ;
987 -> 1041 ;
1042 [label="gini = 0.0\nsamples = 24\nvalue = [0, 24]"] ;
986 -> 1042 ;
1043 [label="X[20] <= 216747.0\ngini = 0.497\nsamples = 13\nvalue = [7, 6]"] ;
985 -> 1043 ;
1044 [label="X[21] <= 46.5\ngini = 0.375\nsamples = 8\nvalue = [2, 6]"] ;
1043 -> 1044 ;
1045 [label="gini = 0.0\nsamples = 1\nvalue = [1, 0]"] ;
1044 -> 1045 ;
1046 [label="X[20] <= 46066.0\ngini = 0.245\nsamples = 7\nvalue = [1, 6]"] ;
1044 -> 1046 ;
1047 [label="gini = 0.0\nsamples = 1\nvalue = [1, 0]"] ;
1046 -> 1047 ;
1048 [label="gini = 0.0\nsamples = 6\nvalue = [0, 6]"] ;
1046 -> 1048 ;
1049 [label="gini = 0.0\nsamples = 5\nvalue = [5, 0]"] ;
1043 -> 1049 ;
1050 [label="X[0] <= 47.0\ngini = 0.198\nsamples = 9\nvalue = [8, 1]"] ;
984 -> 1050 ;
1051 [label="gini = 0.0\nsamples = 8\nvalue = [8, 0]"] ;
1050 -> 1051 ;
1052 [label="gini = 0.0\nsamples = 1\nvalue = [0, 1]"] ;
1050 -> 1052 ;
1053 [label="X[103] <= 0.5\ngini = 0.5\nsamples = 105\nvalue = [52, 53]"] ;
983 -> 1053 ;
1054 [label="X[20] <= 180468.0\ngini = 0.464\nsamples = 41\nvalue = [26, 15]"] ;
1053 -> 1054 ;
1055 [label="X[88] <= 0.5\ngini = 0.365\nsamples = 25\nvalue = [19, 6]"] ;
1054 -> 1055 ;
1056 [label="X[106] <= 0.5\ngini = 0.33\nsamples = 24\nvalue = [19, 5]"] ;
1055 -> 1056 ;
1057 [label="X[0] <= 48.0\ngini = 0.287\nsamples = 23\nvalue = [19, 4]"] ;
1056 -> 1057 ;
1058 [label="X[20] <= 77936.0\ngini = 0.408\nsamples = 14\nvalue = [10, 4]"] ;
1057 -> 1058 ;
1059 [label="gini = 0.0\nsamples = 2\nvalue = [0, 2]"] ;
1058 -> 1059 ;
1060 [label="X[0] <= 44.0\ngini = 0.278\nsamples = 12\nvalue = [10, 2]"] ;
1058 -> 1060 ;
1061 [label="gini = 0.0\nsamples = 8\nvalue = [8, 0]"] ;
1060 -> 1061 ;
1062 [label="X[13] <= 0.5\ngini = 0.5\nsamples = 4\nvalue = [2, 2]"] ;
1060 -> 1062 ;
1063 [label="gini = 0.0\nsamples = 2\nvalue = [0, 2]"] ;
1062 -> 1063 ;
1064 [label="gini = 0.0\nsamples = 2\nvalue = [2, 0]"] ;
1062 -> 1064 ;
1065 [label="gini = 0.0\nsamples = 9\nvalue = [9, 0]"] ;
1057 -> 1065 ;
1066 [label="gini = 0.0\nsamples = 1\nvalue = [0, 1]"] ;
1056 -> 1066 ;
1067 [label="gini = 0.0\nsamples = 1\nvalue = [0, 1]"] ;
1055 -> 1067 ;
1068 [label="X[20] <= 324951.0\ngini = 0.492\nsamples = 16\nvalue = [7, 9]"] ;
1054 -> 1068 ;
1069 [label="X[0] <= 42.0\ngini = 0.375\nsamples = 12\nvalue = [3, 9]"] ;
1068 -> 1069 ;
1070 [label="X[20] <= 186337.0\ngini = 0.5\nsamples = 6\nvalue = [3, 3]"] ;
1069 -> 1070 ;
1071 [label="gini = 0.0\nsamples = 2\nvalue = [0, 2]"] ;
1070 -> 1071 ;
1072 [label="X[0] <= 34.0\ngini = 0.375\nsamples = 4\nvalue = [3, 1]"] ;
1070 -> 1072 ;
1073 [label="X[21] <= 48.0\ngini = 0.5\nsamples = 2\nvalue = [1, 1]"] ;
1072 -> 1073 ;
1074 [label="gini = 0.0\nsamples = 1\nvalue = [1, 0]"] ;
1073 -> 1074 ;
1075 [label="gini = 0.0\nsamples = 1\nvalue = [0, 1]"] ;
1073 -> 1075 ;
1076 [label="gini = 0.0\nsamples = 2\nvalue = [2, 0]"] ;
1072 -> 1076 ;
1077 [label="gini = 0.0\nsamples = 6\nvalue = [0, 6]"] ;
1069 -> 1077 ;
1078 [label="gini = 0.0\nsamples = 4\nvalue = [4, 0]"] ;
1068 -> 1078 ;
1079 [label="X[21] <= 46.5\ngini = 0.482\nsamples = 64\nvalue = [26, 38]"] ;
1053 -> 1079 ;
1080 [label="X[92] <= 0.5\ngini = 0.472\nsamples = 21\nvalue = [13, 8]"] ;
1079 -> 1080 ;
1081 [label="gini = 0.0\nsamples = 7\nvalue = [7, 0]"] ;
1080 -> 1081 ;
1082 [label="X[75] <= 0.5\ngini = 0.49\nsamples = 14\nvalue = [6, 8]"] ;
1080 -> 1082 ;
1083 [label="X[0] <= 39.0\ngini = 0.444\nsamples = 9\nvalue = [6, 3]"] ;
1082 -> 1083 ;
1084 [label="X[20] <= 316837.5\ngini = 0.48\nsamples = 5\nvalue = [2, 3]"] ;
1083 -> 1084 ;
1085 [label="X[83] <= 0.5\ngini = 0.444\nsamples = 3\nvalue = [2, 1]"] ;
1084 -> 1085 ;
1086 [label="gini = 0.0\nsamples = 2\nvalue = [2, 0]"] ;
1085 -> 1086 ;
1087 [label="gini = 0.0\nsamples = 1\nvalue = [0, 1]"] ;
1085 -> 1087 ;
1088 [label="gini = 0.0\nsamples = 2\nvalue = [0, 2]"] ;
1084 -> 1088 ;
1089 [label="gini = 0.0\nsamples = 4\nvalue = [4, 0]"] ;
1083 -> 1089 ;
1090 [label="gini = 0.0\nsamples = 5\nvalue = [0, 5]"] ;
1082 -> 1090 ;
1091 [label="X[20] <= 387295.0\ngini = 0.422\nsamples = 43\nvalue = [13, 30]"] ;
1079 -> 1091 ;
1092 [label="X[0] <= 38.5\ngini = 0.375\nsamples = 40\nvalue = [10, 30]"] ;
1091 -> 1092 ;
1093 [label="X[0] <= 35.5\ngini = 0.49\nsamples = 14\nvalue = [6, 8]"] ;
1092 -> 1093 ;
1094 [label="gini = 0.0\nsamples = 6\nvalue = [0, 6]"] ;
1093 -> 1094 ;
1095 [label="X[51] <= 0.5\ngini = 0.375\nsamples = 8\nvalue = [6, 2]"] ;
1093 -> 1095 ;
1096 [label="X[81] <= 0.5\ngini = 0.245\nsamples = 7\nvalue = [6, 1]"] ;
1095 -> 1096 ;
1097 [label="gini = 0.0\nsamples = 5\nvalue = [5, 0]"] ;
1096 -> 1097 ;
1098 [label="X[95] <= 0.5\ngini = 0.5\nsamples = 2\nvalue = [1, 1]"] ;
1096 -> 1098 ;
1099 [label="gini = 0.0\nsamples = 1\nvalue = [0, 1]"] ;
1098 -> 1099 ;
1100 [label="gini = 0.0\nsamples = 1\nvalue = [1, 0]"] ;
1098 -> 1100 ;
1101 [label="gini = 0.0\nsamples = 1\nvalue = [0, 1]"] ;
1095 -> 1101 ;
1102 [label="X[40] <= 0.5\ngini = 0.26\nsamples = 26\nvalue = [4, 22]"] ;
1092 -> 1102 ;
1103 [label="X[0] <= 56.5\ngini = 0.211\nsamples = 25\nvalue = [3, 22]"] ;
1102 -> 1103 ;
1104 [label="X[75] <= 0.5\ngini = 0.153\nsamples = 24\nvalue = [2, 22]"] ;
1103 -> 1104 ;
1105 [label="X[20] <= 109631.5\ngini = 0.298\nsamples = 11\nvalue = [2, 9]"] ;
1104 -> 1105 ;
1106 [label="gini = 0.0\nsamples = 1\nvalue = [1, 0]"] ;
1105 -> 1106 ;
1107 [label="X[83] <= 0.5\ngini = 0.18\nsamples = 10\nvalue = [1, 9]"] ;
1105 -> 1107 ;
1108 [label="gini = 0.0\nsamples = 6\nvalue = [0, 6]"] ;
1107 -> 1108 ;
1109 [label="X[95] <= 0.5\ngini = 0.375\nsamples = 4\nvalue = [1, 3]"] ;
1107 -> 1109 ;
1110 [label="gini = 0.0\nsamples = 2\nvalue = [0, 2]"] ;
1109 -> 1110 ;
1111 [label="X[25] <= 0.5\ngini = 0.5\nsamples = 2\nvalue = [1, 1]"] ;
1109 -> 1111 ;
1112 [label="gini = 0.0\nsamples = 1\nvalue = [1, 0]"] ;
1111 -> 1112 ;
1113 [label="gini = 0.0\nsamples = 1\nvalue = [0, 1]"] ;
1111 -> 1113 ;
1114 [label="gini = 0.0\nsamples = 13\nvalue = [0, 13]"] ;
1104 -> 1114 ;
1115 [label="gini = 0.0\nsamples = 1\nvalue = [1, 0]"] ;
1103 -> 1115 ;
1116 [label="gini = 0.0\nsamples = 1\nvalue = [1, 0]"] ;
1102 -> 1116 ;
1117 [label="gini = 0.0\nsamples = 3\nvalue = [3, 0]"] ;
1091 -> 1117 ;
1118 [label="X[0] <= 32.5\ngini = 0.265\nsamples = 51\nvalue = [8, 43]"] ;
982 -> 1118 ;
1119 [label="gini = 0.0\nsamples = 2\nvalue = [2, 0]"] ;
1118 -> 1119 ;
1120 [label="X[25] <= 0.5\ngini = 0.215\nsamples = 49\nvalue = [6, 43]"] ;
1118 -> 1120 ;
1121 [label="X[29] <= 0.5\ngini = 0.187\nsamples = 48\nvalue = [5, 43]"] ;
1120 -> 1121 ;
1122 [label="X[76] <= 0.5\ngini = 0.156\nsamples = 47\nvalue = [4, 43]"] ;
1121 -> 1122 ;
1123 [label="X[106] <= 0.5\ngini = 0.122\nsamples = 46\nvalue = [3, 43]"] ;
1122 -> 1123 ;
1124 [label="X[75] <= 0.5\ngini = 0.049\nsamples = 40\nvalue = [1, 39]"] ;
1123 -> 1124 ;
1125 [label="gini = 0.0\nsamples = 32\nvalue = [0, 32]"] ;
1124 -> 1125 ;
1126 [label="X[20] <= 211125.0\ngini = 0.219\nsamples = 8\nvalue = [1, 7]"] ;
1124 -> 1126 ;
1127 [label="gini = 0.0\nsamples = 7\nvalue = [0, 7]"] ;
1126 -> 1127 ;
1128 [label="gini = 0.0\nsamples = 1\nvalue = [1, 0]"] ;
1126 -> 1128 ;
1129 [label="X[20] <= 115989.0\ngini = 0.444\nsamples = 6\nvalue = [2, 4]"] ;
1123 -> 1129 ;
1130 [label="gini = 0.0\nsamples = 2\nvalue = [2, 0]"] ;
1129 -> 1130 ;
1131 [label="gini = 0.0\nsamples = 4\nvalue = [0, 4]"] ;
1129 -> 1131 ;
1132 [label="gini = 0.0\nsamples = 1\nvalue = [1, 0]"] ;
1122 -> 1132 ;
1133 [label="gini = 0.0\nsamples = 1\nvalue = [1, 0]"] ;
1121 -> 1133 ;
1134 [label="gini = 0.0\nsamples = 1\nvalue = [1, 0]"] ;
1120 -> 1134 ;
1135 [label="gini = 0.0\nsamples = 7\nvalue = [7, 0]"] ;
959 -> 1135 ;
1136 [label="gini = 0.0\nsamples = 8\nvalue = [8, 0]"] ;
958 -> 1136 ;
1137 [label="X[1] <= 7669.5\ngini = 0.144\nsamples = 295\nvalue = [23, 272]"] ;
1 -> 1137 ;
1138 [label="X[1] <= 4826.0\ngini = 0.484\nsamples = 56\nvalue = [23, 33]"] ;
1137 -> 1138 ;
1139 [label="gini = 0.0\nsamples = 20\nvalue = [0, 20]"] ;
1138 -> 1139 ;
1140 [label="X[95] <= 0.5\ngini = 0.461\nsamples = 36\nvalue = [23, 13]"] ;
1138 -> 1140 ;
1141 [label="gini = 0.0\nsamples = 12\nvalue = [12, 0]"] ;
1140 -> 1141 ;
1142 [label="X[1] <= 5194.5\ngini = 0.497\nsamples = 24\nvalue = [11, 13]"] ;
1140 -> 1142 ;
1143 [label="gini = 0.0\nsamples = 6\nvalue = [0, 6]"] ;
1142 -> 1143 ;
1144 [label="X[3] <= 12.5\ngini = 0.475\nsamples = 18\nvalue = [11, 7]"] ;
1142 -> 1144 ;
1145 [label="X[3] <= 8.0\ngini = 0.18\nsamples = 10\nvalue = [9, 1]"] ;
1144 -> 1145 ;
1146 [label="gini = 0.0\nsamples = 1\nvalue = [0, 1]"] ;
1145 -> 1146 ;
1147 [label="gini = 0.0\nsamples = 9\nvalue = [9, 0]"] ;
1145 -> 1147 ;
1148 [label="X[20] <= 110541.5\ngini = 0.375\nsamples = 8\nvalue = [2, 6]"] ;
1144 -> 1148 ;
1149 [label="gini = 0.0\nsamples = 2\nvalue = [2, 0]"] ;
1148 -> 1149 ;
1150 [label="gini = 0.0\nsamples = 6\nvalue = [0, 6]"] ;
1148 -> 1150 ;
1151 [label="gini = 0.0\nsamples = 239\nvalue = [0, 239]"] ;
1137 -> 1151 ;
1152 [label="X[3] <= 11.5\ngini = 0.403\nsamples = 7425\nvalue = [2074, 5351]"] ;
0 -> 1152 [labeldistance=2.5, labelangle=-45, headlabel="False"] ;
1153 [label="X[1] <= 5095.5\ngini = 0.479\nsamples = 4327\nvalue = [1717, 2610]"] ;
1152 -> 1153 ;
1154 [label="X[3] <= 8.5\ngini = 0.492\nsamples = 3921\nvalue = [1716, 2205]"] ;
1153 -> 1154 ;
1155 [label="X[21] <= 45.5\ngini = 0.393\nsamples = 494\nvalue = [361, 133]"] ;
1154 -> 1155 ;
1156 [label="X[83] <= 0.5\ngini = 0.351\nsamples = 396\nvalue = [306, 90]"] ;
1155 -> 1156 ;
1157 [label="X[0] <= 36.5\ngini = 0.331\nsamples = 382\nvalue = [302, 80]"] ;
1156 -> 1157 ;
1158 [label="X[54] <= 0.5\ngini = 0.167\nsamples = 98\nvalue = [89, 9]"] ;
1157 -> 1158 ;
1159 [label="X[67] <= 0.5\ngini = 0.151\nsamples = 97\nvalue = [89, 8]"] ;
1158 -> 1159 ;
1160 [label="X[72] <= 0.5\ngini = 0.135\nsamples = 96\nvalue = [89, 7]"] ;
1159 -> 1160 ;
1161 [label="X[29] <= 0.5\ngini = 0.118\nsamples = 95\nvalue = [89, 6]"] ;
1160 -> 1161 ;
1162 [label="X[106] <= 0.5\ngini = 0.102\nsamples = 93\nvalue = [88, 5]"] ;
1161 -> 1162 ;
1163 [label="X[20] <= 180784.0\ngini = 0.084\nsamples = 91\nvalue = [87, 4]"] ;
1162 -> 1163 ;
1164 [label="X[2] <= 951.0\ngini = 0.208\nsamples = 34\nvalue = [30, 4]"] ;
1163 -> 1164 ;
1165 [label="X[20] <= 177114.5\ngini = 0.165\nsamples = 33\nvalue = [30, 3]"] ;
1164 -> 1165 ;
1166 [label="X[105] <= 0.5\ngini = 0.117\nsamples = 32\nvalue = [30, 2]"] ;
1165 -> 1166 ;
1167 [label="X[85] <= 0.5\ngini = 0.067\nsamples = 29\nvalue = [28, 1]"] ;
1166 -> 1167 ;
1168 [label="gini = 0.0\nsamples = 25\nvalue = [25, 0]"] ;
1167 -> 1168 ;
1169 [label="X[20] <= 128559.5\ngini = 0.375\nsamples = 4\nvalue = [3, 1]"] ;
1167 -> 1169 ;
1170 [label="gini = 0.0\nsamples = 3\nvalue = [3, 0]"] ;
1169 -> 1170 ;
1171 [label="gini = 0.0\nsamples = 1\nvalue = [0, 1]"] ;
1169 -> 1171 ;
1172 [label="X[4] <= 0.5\ngini = 0.444\nsamples = 3\nvalue = [2, 1]"] ;
1166 -> 1172 ;
1173 [label="gini = 0.0\nsamples = 2\nvalue = [2, 0]"] ;
1172 -> 1173 ;
1174 [label="gini = 0.0\nsamples = 1\nvalue = [0, 1]"] ;
1172 -> 1174 ;
1175 [label="gini = 0.0\nsamples = 1\nvalue = [0, 1]"] ;
1165 -> 1175 ;
1176 [label="gini = 0.0\nsamples = 1\nvalue = [0, 1]"] ;
1164 -> 1176 ;
1177 [label="gini = 0.0\nsamples = 57\nvalue = [57, 0]"] ;
1163 -> 1177 ;
1178 [label="X[79] <= 0.5\ngini = 0.5\nsamples = 2\nvalue = [1, 1]"] ;
1162 -> 1178 ;
1179 [label="gini = 0.0\nsamples = 1\nvalue = [0, 1]"] ;
1178 -> 1179 ;
1180 [label="gini = 0.0\nsamples = 1\nvalue = [1, 0]"] ;
1178 -> 1180 ;
1181 [label="X[79] <= 0.5\ngini = 0.5\nsamples = 2\nvalue = [1, 1]"] ;
1161 -> 1181 ;
1182 [label="gini = 0.0\nsamples = 1\nvalue = [0, 1]"] ;
1181 -> 1182 ;
1183 [label="gini = 0.0\nsamples = 1\nvalue = [1, 0]"] ;
1181 -> 1183 ;
1184 [label="gini = 0.0\nsamples = 1\nvalue = [0, 1]"] ;
1160 -> 1184 ;
1185 [label="gini = 0.0\nsamples = 1\nvalue = [0, 1]"] ;
1159 -> 1185 ;
1186 [label="gini = 0.0\nsamples = 1\nvalue = [0, 1]"] ;
1158 -> 1186 ;
1187 [label="X[3] <= 5.5\ngini = 0.375\nsamples = 284\nvalue = [213, 71]"] ;
1157 -> 1187 ;
1188 [label="X[2] <= 1760.0\ngini = 0.276\nsamples = 145\nvalue = [121, 24]"] ;
1187 -> 1188 ;
1189 [label="X[104] <= 0.5\ngini = 0.26\nsamples = 143\nvalue = [121, 22]"] ;
1188 -> 1189 ;
1190 [label="X[20] <= 56651.0\ngini = 0.236\nsamples = 139\nvalue = [120, 19]"] ;
1189 -> 1190 ;
1191 [label="X[21] <= 30.0\ngini = 0.494\nsamples = 9\nvalue = [5, 4]"] ;
1190 -> 1191 ;
1192 [label="gini = 0.0\nsamples = 2\nvalue = [2, 0]"] ;
1191 -> 1192 ;
1193 [label="X[0] <= 51.5\ngini = 0.49\nsamples = 7\nvalue = [3, 4]"] ;
1191 -> 1193 ;
1194 [label="X[100] <= 0.5\ngini = 0.375\nsamples = 4\nvalue = [3, 1]"] ;
1193 -> 1194 ;
1195 [label="gini = 0.0\nsamples = 3\nvalue = [3, 0]"] ;
1194 -> 1195 ;
1196 [label="gini = 0.0\nsamples = 1\nvalue = [0, 1]"] ;
1194 -> 1196 ;
1197 [label="gini = 0.0\nsamples = 3\nvalue = [0, 3]"] ;
1193 -> 1197 ;
1198 [label="X[75] <= 0.5\ngini = 0.204\nsamples = 130\nvalue = [115, 15]"] ;
1190 -> 1198 ;
1199 [label="X[70] <= 0.5\ngini = 0.184\nsamples = 127\nvalue = [114, 13]"] ;
1198 -> 1199 ;
1200 [label="X[20] <= 440656.5\ngini = 0.172\nsamples = 126\nvalue = [114, 12]"] ;
1199 -> 1200 ;
1201 [label="X[105] <= 0.5\ngini = 0.15\nsamples = 122\nvalue = [112, 10]"] ;
1200 -> 1201 ;
1202 [label="X[43] <= 0.5\ngini = 0.106\nsamples = 107\nvalue = [101, 6]"] ;
1201 -> 1202 ;
1203 [label="X[78] <= 0.5\ngini = 0.091\nsamples = 105\nvalue = [100, 5]"] ;
1202 -> 1203 ;
1204 [label="X[20] <= 385791.5\ngini = 0.044\nsamples = 88\nvalue = [86, 2]"] ;
1203 -> 1204 ;
1205 [label="X[21] <= 30.5\ngini = 0.024\nsamples = 84\nvalue = [83, 1]"] ;
1204 -> 1205 ;
1206 [label="X[20] <= 144589.5\ngini = 0.219\nsamples = 8\nvalue = [7, 1]"] ;
1205 -> 1206 ;
1207 [label="X[103] <= 0.5\ngini = 0.5\nsamples = 2\nvalue = [1, 1]"] ;
1206 -> 1207 ;
1208 [label="gini = 0.0\nsamples = 1\nvalue = [0, 1]"] ;
1207 -> 1208 ;
1209 [label="gini = 0.0\nsamples = 1\nvalue = [1, 0]"] ;
1207 -> 1209 ;
1210 [label="gini = 0.0\nsamples = 6\nvalue = [6, 0]"] ;
1206 -> 1210 ;
1211 [label="gini = 0.0\nsamples = 76\nvalue = [76, 0]"] ;
1205 -> 1211 ;
1212 [label="X[3] <= 2.5\ngini = 0.375\nsamples = 4\nvalue = [3, 1]"] ;
1204 -> 1212 ;
1213 [label="gini = 0.0\nsamples = 3\nvalue = [3, 0]"] ;
1212 -> 1213 ;
1214 [label="gini = 0.0\nsamples = 1\nvalue = [0, 1]"] ;
1212 -> 1214 ;
1215 [label="X[0] <= 41.5\ngini = 0.291\nsamples = 17\nvalue = [14, 3]"] ;
1203 -> 1215 ;
1216 [label="gini = 0.0\nsamples = 2\nvalue = [0, 2]"] ;
1215 -> 1216 ;
1217 [label="X[98] <= 0.5\ngini = 0.124\nsamples = 15\nvalue = [14, 1]"] ;
1215 -> 1217 ;
1218 [label="X[10] <= 0.5\ngini = 0.444\nsamples = 3\nvalue = [2, 1]"] ;
1217 -> 1218 ;
1219 [label="gini = 0.0\nsamples = 2\nvalue = [2, 0]"] ;
1218 -> 1219 ;
1220 [label="gini = 0.0\nsamples = 1\nvalue = [0, 1]"] ;
1218 -> 1220 ;
1221 [label="gini = 0.0\nsamples = 12\nvalue = [12, 0]"] ;
1217 -> 1221 ;
1222 [label="X[91] <= 0.5\ngini = 0.5\nsamples = 2\nvalue = [1, 1]"] ;
1202 -> 1222 ;
1223 [label="gini = 0.0\nsamples = 1\nvalue = [1, 0]"] ;
1222 -> 1223 ;
1224 [label="gini = 0.0\nsamples = 1\nvalue = [0, 1]"] ;
1222 -> 1224 ;
1225 [label="X[0] <= 56.5\ngini = 0.391\nsamples = 15\nvalue = [11, 4]"] ;
1201 -> 1225 ;
1226 [label="X[0] <= 41.5\ngini = 0.18\nsamples = 10\nvalue = [9, 1]"] ;
1225 -> 1226 ;
1227 [label="X[0] <= 39.5\ngini = 0.5\nsamples = 2\nvalue = [1, 1]"] ;
1226 -> 1227 ;
1228 [label="gini = 0.0\nsamples = 1\nvalue = [1, 0]"] ;
1227 -> 1228 ;
1229 [label="gini = 0.0\nsamples = 1\nvalue = [0, 1]"] ;
1227 -> 1229 ;
1230 [label="gini = 0.0\nsamples = 8\nvalue = [8, 0]"] ;
1226 -> 1230 ;
1231 [label="X[21] <= 35.0\ngini = 0.48\nsamples = 5\nvalue = [2, 3]"] ;
1225 -> 1231 ;
1232 [label="X[76] <= 0.5\ngini = 0.444\nsamples = 3\nvalue = [2, 1]"] ;
1231 -> 1232 ;
1233 [label="gini = 0.0\nsamples = 2\nvalue = [2, 0]"] ;
1232 -> 1233 ;
1234 [label="gini = 0.0\nsamples = 1\nvalue = [0, 1]"] ;
1232 -> 1234 ;
1235 [label="gini = 0.0\nsamples = 2\nvalue = [0, 2]"] ;
1231 -> 1235 ;
1236 [label="X[20] <= 549691.0\ngini = 0.5\nsamples = 4\nvalue = [2, 2]"] ;
1200 -> 1236 ;
1237 [label="gini = 0.0\nsamples = 2\nvalue = [0, 2]"] ;
1236 -> 1237 ;
1238 [label="gini = 0.0\nsamples = 2\nvalue = [2, 0]"] ;
1236 -> 1238 ;
1239 [label="gini = 0.0\nsamples = 1\nvalue = [0, 1]"] ;
1199 -> 1239 ;
1240 [label="X[103] <= 0.5\ngini = 0.444\nsamples = 3\nvalue = [1, 2]"] ;
1198 -> 1240 ;
1241 [label="gini = 0.0\nsamples = 1\nvalue = [1, 0]"] ;
1240 -> 1241 ;
1242 [label="gini = 0.0\nsamples = 2\nvalue = [0, 2]"] ;
1240 -> 1242 ;
1243 [label="X[0] <= 71.0\ngini = 0.375\nsamples = 4\nvalue = [1, 3]"] ;
1189 -> 1243 ;
1244 [label="gini = 0.0\nsamples = 3\nvalue = [0, 3]"] ;
1243 -> 1244 ;
1245 [label="gini = 0.0\nsamples = 1\nvalue = [1, 0]"] ;
1243 -> 1245 ;
1246 [label="gini = 0.0\nsamples = 2\nvalue = [0, 2]"] ;
1188 -> 1246 ;
1247 [label="X[0] <= 38.5\ngini = 0.448\nsamples = 139\nvalue = [92, 47]"] ;
1187 -> 1247 ;
1248 [label="X[20] <= 186990.0\ngini = 0.408\nsamples = 7\nvalue = [2, 5]"] ;
1247 -> 1248 ;
1249 [label="gini = 0.0\nsamples = 4\nvalue = [0, 4]"] ;
1248 -> 1249 ;
1250 [label="X[3] <= 7.5\ngini = 0.444\nsamples = 3\nvalue = [2, 1]"] ;
1248 -> 1250 ;
1251 [label="gini = 0.0\nsamples = 2\nvalue = [2, 0]"] ;
1250 -> 1251 ;
1252 [label="gini = 0.0\nsamples = 1\nvalue = [0, 1]"] ;
1250 -> 1252 ;
1253 [label="X[81] <= 0.5\ngini = 0.434\nsamples = 132\nvalue = [90, 42]"] ;
1247 -> 1253 ;
1254 [label="X[88] <= 0.5\ngini = 0.426\nsamples = 130\nvalue = [90, 40]"] ;
1253 -> 1254 ;
1255 [label="X[20] <= 91546.5\ngini = 0.402\nsamples = 115\nvalue = [83, 32]"] ;
1254 -> 1255 ;
1256 [label="X[0] <= 48.5\ngini = 0.5\nsamples = 14\nvalue = [7, 7]"] ;
1255 -> 1256 ;
1257 [label="X[20] <= 64019.5\ngini = 0.32\nsamples = 5\nvalue = [4, 1]"] ;
1256 -> 1257 ;
1258 [label="gini = 0.0\nsamples = 3\nvalue = [3, 0]"] ;
1257 -> 1258 ;
1259 [label="X[103] <= 0.5\ngini = 0.5\nsamples = 2\nvalue = [1, 1]"] ;
1257 -> 1259 ;
1260 [label="gini = 0.0\nsamples = 1\nvalue = [1, 0]"] ;
1259 -> 1260 ;
1261 [label="gini = 0.0\nsamples = 1\nvalue = [0, 1]"] ;
1259 -> 1261 ;
1262 [label="X[71] <= 0.5\ngini = 0.444\nsamples = 9\nvalue = [3, 6]"] ;
1256 -> 1262 ;
1263 [label="X[5] <= 0.5\ngini = 0.375\nsamples = 8\nvalue = [2, 6]"] ;
